{"learner":{"attributes":{"best_iteration":"99","best_ntree_limit":"100","scikit_learn":"{\"use_label_encoder\": true, \"n_estimators\": 100, \"objective\": \"binary:logistic\", \"max_depth\": null, \"learning_rate\": null, \"verbosity\": null, \"booster\": null, \"tree_method\": null, \"gamma\": null, \"min_child_weight\": null, \"max_delta_step\": null, \"subsample\": null, \"colsample_bytree\": null, \"colsample_bylevel\": null, \"colsample_bynode\": null, \"reg_alpha\": null, \"reg_lambda\": null, \"scale_pos_weight\": null, \"base_score\": null, \"missing\": NaN, \"num_parallel_tree\": null, \"random_state\": null, \"n_jobs\": null, \"monotone_constraints\": null, \"interaction_constraints\": null, \"importance_type\": null, \"gpu_id\": null, \"validate_parameters\": null, \"predictor\": null, \"enable_categorical\": false, \"classes_\": [0.0, 1.0], \"n_classes_\": 2, \"_le\": {\"classes_\": [0.0, 1.0]}, \"_estimator_type\": \"classifier\"}"},"feature_names":["ID","Loan Amount","Funded Amount","Funded Amount Investor","Term","Batch Enrolled","Interest Rate","Grade","Sub Grade","Employment Duration","Home Ownership","Verification Status","Payment Plan","Loan Title","Debit to Income","Delinquency - two years","Inquires - six months","Open Account","Public Record","Revolving Balance","Revolving Utilities","Total Accounts","Initial List Status","Total Received Interest","Total Received Late Fee","Recoveries","Collection Recovery Fee","Collection 12 months Medical","Application Type","Last week Pay","Accounts Delinquent","Total Collection Amount","Total Current Balance","Total Revolving Credit Limit"],"feature_types":["float","float","float","float","float","int","float","int","int","int","float","int","int","int","float","float","float","float","float","float","float","float","int","float","float","float","float","float","int","float","float","float","float","float"],"gradient_booster":{"model":{"gbtree_model_param":{"num_trees":"100","size_leaf_vector":"0"},"tree_info":[0,0,0,0,0,0,0,0,0,0,0,0,0,0,0,0,0,0,0,0,0,0,0,0,0,0,0,0,0,0,0,0,0,0,0,0,0,0,0,0,0,0,0,0,0,0,0,0,0,0,0,0,0,0,0,0,0,0,0,0,0,0,0,0,0,0,0,0,0,0,0,0,0,0,0,0,0,0,0,0,0,0,0,0,0,0,0,0,0,0,0,0,0,0,0,0,0,0,0,0],"trees":[{"base_weights":[-1.6298635E0,-1.6626083E0,-1.6073779E0,-1.0985916E0,-1.6638323E0,-1.6444261E0,-1.5860072E0,5E-1,-1.2238806E0,-1.6644044E0,-8.965517E-1,-8.717949E-1,-1.6460469E0,-4.4444445E-1,-1.5865633E0,-0E0,-1.4385965E0,-4E-1,-1.6646241E0,5E-1,-1.2E0,6.666667E-1,-1.1764706E0,-1.6464758E0,-2.2222222E-1,-1.0769231E0,6.666667E-1,-1.5868118E0,-0E0,-8E-1,1E0,-1.5471698E0,-0E0,-1.665173E0,-9.677419E-1,-1.8181819E-1,-1.5555556E0,-1.4666667E0,5E-1,-1.6490158E0,-1.2307693E0,-1.587836E0,-1.0175439E0,-0E0,-1.6734694E0,-1.6662982E0,-1.2608696E0,5E-1,-1.2592592E0,-0E0,-1.6923077E0,-1.6497849E0,-6.666667E-1,1E0,-1.36E0,-1.3170732E0,-1.5902231E0,-1.2307693E0,6.666667E-1],"categories":[],"categories_nodes":[],"categories_segments":[],"categories_sizes":[],"default_left":[true,true,true,true,true,true,true,false,true,true,true,true,true,true,true,true,true,false,true,false,true,false,true,true,false,false,false,true,false,false,false,true,false,true,true,false,false,true,false,true,true,true,true,false,false,false,false,false,false,false,false,false,false,false,false,false,false,false,false],"id":0,"left_children":[1,3,5,7,9,11,13,-1,15,17,19,21,23,25,27,29,31,-1,33,-1,35,-1,37,39,-1,-1,-1,41,-1,-1,-1,43,-1,45,47,-1,-1,49,-1,51,53,55,57,-1,-1,-1,-1,-1,-1,-1,-1,-1,-1,-1,-1,-1,-1,-1,-1],"loss_changes":[9.746094E0,2.890625E0,5.3320312E0,4.167017E0,1.5039062E0,3.1259766E0,3.350586E0,0E0,4.401676E0,1.2265625E0,3.6724138E0,5.3544493E0,1.8525391E0,3.880342E0,2.5175781E0,3.6E0,2.2257538E0,0E0,9.941406E-1,0E0,1.9797983E0,0E0,4.8686275E0,1.8056641E0,0E0,0E0,0E0,2.1064453E0,0E0,0E0,0E0,2.58914E0,0E0,9.941406E-1,3.9456391E0,0E0,0E0,2.4820518E0,0E0,1.6259766E0,8.855385E0,2.0234375E0,5.9379225E0,0E0,0E0,0E0,0E0,0E0,0E0,0E0,0E0,0E0,0E0,0E0,0E0,0E0,0E0,0E0,0E0],"parents":[2147483647,0,0,1,1,2,2,3,3,4,4,5,5,6,6,8,8,9,9,10,10,11,11,12,12,13,13,14,14,15,15,16,16,18,18,20,20,22,22,23,23,27,27,31,31,33,33,34,34,37,37,39,39,40,40,41,41,42,42],"right_children":[2,4,6,8,10,12,14,-1,16,18,20,22,24,26,28,30,32,-1,34,-1,36,-1,38,40,-1,-1,-1,42,-1,-1,-1,44,-1,46,48,-1,-1,50,-1,52,54,56,58,-1,-1,-1,-1,-1,-1,-1,-1,-1,-1,-1,-1,-1,-1,-1,-1],"split_conditions":[3.15E1,1.6407922E-2,5.85E1,2.9785E3,4.021852E1,5.364841E0,2.5530334E0,1.5E-1,1.15E1,3.30898E-4,8.5E0,2.5718614E-1,3.49765E4,9.65E1,2.597089E1,1.15E1,1.821455E1,-1.20000005E-1,1.045E2,1.5E-1,7.05E1,2.0000002E-1,8.488722E1,2.2352663E1,-6.666667E-2,-3.2307696E-1,2.0000002E-1,1.27495E4,-0E0,-2.4000001E-1,3E-1,9.75318E0,-0E0,1.2310627E4,1.0124348E-2,-5.454546E-2,-4.666667E-1,6.0248005E6,1.5E-1,3.9593945E1,2.2491037E2,2.430127E4,3.7859596E1,-0E0,-5.0204086E-1,-4.9988946E-1,-3.782609E-1,1.5E-1,-3.7777779E-1,-0E0,-5.0769234E-1,-4.9493548E-1,-2.0000002E-1,3E-1,-4.0800002E-1,-3.95122E-1,-4.7706693E-1,-3.692308E-1,2.0000002E-1],"split_indices":[31,25,4,33,24,6,14,0,31,26,5,26,1,29,6,8,6,0,13,0,29,0,20,6,0,0,0,31,0,0,0,20,0,23,24,0,0,0,0,14,23,10,14,0,0,0,0,0,0,0,0,0,0,0,0,0,0,0,0],"split_type":[0,0,0,0,0,0,0,0,0,0,0,0,0,0,0,0,0,0,0,0,0,0,0,0,0,0,0,0,0,0,0,0,0,0,0,0,0,0,0,0,0,0,0,0,0,0,0,0,0,0,0,0,0,0,0,0,0,0,0],"sum_hessian":[1.686575E4,6.83675E3,1.0029E4,1.675E1,6.82E3,3.641E3,6.388E3,1E0,1.575E1,6.81375E3,6.25E0,8.75E0,3.63225E3,3.5E0,6.3845E3,2.5E0,1.325E1,1.5E0,6.81225E3,1E0,5.25E0,1.25E0,7.5E0,3.631E3,1.25E0,2.25E0,1.25E0,6.3835E3,1E0,1.5E0,1E0,1.225E1,1E0,6.8055E3,6.75E0,1.75E0,3.5E0,6.5E0,1E0,3.606E3,2.5E1,6.37025E3,1.325E1,1E0,1.125E1,6.7835E3,2.2E1,1E0,5.75E0,1E0,5.5E0,3.6025E3,3.5E0,1E0,2.4E1,6.05E1,6.30975E3,1.2E1,1.25E0],"tree_param":{"num_deleted":"0","num_feature":"34","num_nodes":"59","size_leaf_vector":"0"}},{"base_weights":[-1.2209511E0,-1.2348952E0,-1.1776718E0,-1.267218E0,-1.2176825E0,-1.1786151E0,8.351641E-2,-1.2731651E0,-1.0408509E0,-1.1453036E0,-1.2274452E0,-1.1794939E0,8.1172176E-2,9.5826715E-1,-6.63678E-1,-1.2204535E0,-1.2936784E0,-1.1293491E0,-6.17617E-1,-1.2006441E0,-9.799361E-1,-1.2004001E0,-1.2474937E0,2.235648E-1,-1.1800665E0,-5.9947884E-1,7.9761195E-1,6.8540746E-1,-1.2241794E0,-1.2962044E0,-7.5378466E-1,-1.1552842E0,3.0428648E-1,1.4658384E-1,-9.6690375E-1,1.1036178E-1,-1.2060753E0,-1.0029471E0,3.7641424E-1,-1.2181967E0,-1.1040866E0,-1.2485081E0,-2.6170594E-1,-1.1814313E0,-4.9796626E-1,-1.2268089E0,-4.4348672E-2,-1.2968775E0,-3.536389E-1,5.1184106E-1,-9.365919E-1,-5.647763E-1,-1.2155166E0,-4.821068E-1,8.936921E-1,-1.1224374E0,3.0428648E-1,9.541901E-1,-6.263278E-1,-1.2851812E0,-1.1039971E0,-4.4907507E-1,-1.054055E0,1.1452742E0,-6.6538924E-1,-7.894827E-2,-1.2196751E0,1.8961091E-1,-1.1103001E0,-1.2518339E0,-9.6761423E-1,5.488259E-1,-7.082227E-1,-1.2091745E0,-1.1496599E0,9.653978E-1,-8.212863E-1],"categories":[],"categories_nodes":[],"categories_segments":[],"categories_sizes":[],"default_left":[true,true,true,true,true,true,true,true,true,true,true,true,true,false,false,true,true,true,true,true,true,true,true,false,true,false,false,false,true,true,true,true,false,true,true,true,true,true,true,true,true,true,true,true,true,false,false,false,false,false,false,false,false,false,false,false,false,false,false,false,false,false,false,false,false,false,false,false,false,false,false,false,false,false,false,false,false],"id":1,"left_children":[1,3,5,7,9,11,13,15,17,19,21,23,25,-1,-1,27,29,31,33,35,37,39,41,-1,43,-1,-1,-1,45,47,49,51,-1,53,55,57,59,61,63,65,67,69,71,73,75,-1,-1,-1,-1,-1,-1,-1,-1,-1,-1,-1,-1,-1,-1,-1,-1,-1,-1,-1,-1,-1,-1,-1,-1,-1,-1,-1,-1,-1,-1,-1,-1],"loss_changes":[8.138672E0,5.1347656E0,4.732422E0,4.2563477E0,4.1464844E0,4.4052734E0,3.1490974E0,2.784668E0,3.4830093E0,7.5063477E0,2.2490234E0,3.3881836E0,2.2576492E0,0E0,0E0,8.991943E0,2.961914E0,3.7389145E0,5.8830585E0,5.163269E0,7.9723206E0,3.7421875E0,3.6157227E0,0E0,3.03125E0,0E0,0E0,0E0,3.501709E0,1.3637695E0,4.1441393E0,2.5037003E0,0E0,4.00785E0,3.2862015E0,2.9789836E0,4.2628174E0,6.3077087E0,4.5960903E0,4.1064453E0,4.017029E0,2.4672852E0,2.3133202E0,2.0297852E0,5.284184E0,0E0,0E0,0E0,0E0,0E0,0E0,0E0,0E0,0E0,0E0,0E0,0E0,0E0,0E0,0E0,0E0,0E0,0E0,0E0,0E0,0E0,0E0,0E0,0E0,0E0,0E0,0E0,0E0,0E0,0E0,0E0,0E0],"parents":[2147483647,0,0,1,1,2,2,3,3,4,4,5,5,6,6,7,7,8,8,9,9,10,10,11,11,12,12,15,15,16,16,17,17,18,18,19,19,20,20,21,21,22,22,24,24,28,28,29,29,30,30,31,31,33,33,34,34,35,35,36,36,37,37,38,38,39,39,40,40,41,41,42,42,43,43,44,44],"right_children":[2,4,6,8,10,12,14,16,18,20,22,24,26,-1,-1,28,30,32,34,36,38,40,42,-1,44,-1,-1,-1,46,48,50,52,-1,54,56,58,60,62,64,66,68,70,72,74,76,-1,-1,-1,-1,-1,-1,-1,-1,-1,-1,-1,-1,-1,-1,-1,-1,-1,-1,-1,-1,-1,-1,-1,-1,-1,-1,-1,-1,-1,-1,-1,-1],"split_conditions":[4.65E1,5.85E1,3.4942E4,1.985254E1,6.6905E3,2.4838957E1,5.604418E-1,1.7364414E1,3.5E0,4.3425788E7,5E-1,5.3261766E0,2.243E4,2.8748015E-1,-1.991034E-1,5E-1,9.15E1,7.37885E4,4.05E1,5E-1,2.4703606E1,2.65E1,1.045E2,6.706944E-2,3.4742E4,-1.7984366E-1,2.3928359E-1,2.0562224E-1,4.056761E1,3.959444E1,6.5170736E0,2.0072224E1,9.1285944E-2,2.1562958E1,3.0479E4,1.12409E5,5E-1,1.35E1,3.2704838E1,1.057E3,1.402386E6,5.841285E5,2.8214097E-2,7.062998E4,1.5835E3,-3.6804268E-1,-1.3304602E-2,-3.8906327E-1,-1.0609167E-1,1.5355232E-1,-2.8097758E-1,-1.694329E-1,-3.64655E-1,-1.4463204E-1,2.6810762E-1,-3.3673123E-1,9.1285944E-2,2.8625703E-1,-1.8789835E-1,-3.8555437E-1,-3.3119914E-1,-1.3472253E-1,-3.162165E-1,3.4358227E-1,-1.9961677E-1,-2.3684481E-2,-3.6590254E-1,5.6883276E-2,-3.3309004E-1,-3.7555018E-1,-2.9028428E-1,1.6464779E-1,-2.1246682E-1,-3.6275238E-1,-3.44898E-1,2.8961936E-1,-2.463859E-1],"split_indices":[31,4,1,6,1,6,26,14,7,0,22,6,2,0,0,29,13,33,29,29,24,21,13,0,2,0,0,0,26,14,6,6,0,14,1,32,9,29,24,33,0,32,24,10,19,0,0,0,0,0,0,0,0,0,0,0,0,0,0,0,0,0,0,0,0,0,0,0,0,0,0,0,0,0,0,0,0],"split_type":[0,0,0,0,0,0,0,0,0,0,0,0,0,0,0,0,0,0,0,0,0,0,0,0,0,0,0,0,0,0,0,0,0,0,0,0,0,0,0,0,0,0,0,0,0,0,0,0,0,0,0,0,0,0,0,0,0,0,0,0,0,0,0,0,0,0,0,0,0,0,0,0,0,0,0,0,0],"sum_hessian":[1.5895207E4,1.2001065E4,3.8941409E3,4.144922E3,7.856144E3,3.891296E3,2.8449852E0,4.0343088E3,1.1061309E2,9.477835E2,6.9083604E3,3.8886467E3,2.6491628E0,1.1804864E0,1.6644988E0,1.1471257E3,2.887183E3,9.010397E1,2.0509113E1,7.054447E2,2.4233878E2,2.966907E3,3.9414534E3,1.4272672E0,3.8872195E3,1.4422302E0,1.2069325E0,1.8812163E0,1.1452445E3,2.8723435E3,1.4839664E1,8.8693634E1,1.4103444E0,6.6154895E0,1.3893624E1,2.8307538E0,7.0261395E2,2.3855222E2,3.7865577E0,2.4943572E3,4.725499E2,3.9371355E3,4.3178887E0,3.8787268E3,8.492675E0,1.142658E3,2.5865304E0,2.8699182E3,2.42514E0,1.6457542E0,1.319391E1,9.169935E0,7.95237E1,3.785065E0,2.8304245E0,1.248328E1,1.4103444E0,1.1818192E0,1.6489347E0,3.8931946E2,3.1329453E2,2.097934E1,2.1757288E2,2.121531E0,1.6650268E0,3.3030217E0,2.4910542E3,2.1176667E0,4.7043222E2,3.8876492E3,4.948628E1,1.4523706E0,2.865518E0,2.0508396E3,1.8278873E3,1.177474E0,7.3152003E0],"tree_param":{"num_deleted":"0","num_feature":"34","num_nodes":"77","size_leaf_vector":"0"}},{"base_weights":[-9.840145E-1,-1.0229262E0,-9.660455E-1,-8.779704E-1,-1.0305887E0,-1.0026823E0,-9.453508E-1,8.07983E-1,-8.954099E-1,-7.5411624E-1,-1.035306E0,-1.0646802E0,-9.798705E-1,-9.6348023E-1,-8.994725E-1,-6.115287E-1,-9.509849E-1,-8.754314E-1,9.9680156E-2,-9.905579E-1,-1.056007E0,-1.0677168E0,3.0307021E-2,-8.1611717E-1,-9.8945117E-1,-9.6552217E-1,-4.6532446E-1,3.974348E-2,-9.060118E-1,7.80238E-1,-6.843129E-1,-1.2120998E0,-8.838509E-1,-9.2229545E-1,4.5945925E-1,-9.8477226E-1,1.165669E0,-9.9295825E-1,4.5445272E-1,-6.861199E-2,-1.0572988E0,-1.0708735E0,-1.0636849E-1,6.455615E-1,-7.295848E-1,-8.673889E-1,1.0976247E-1,-9.77591E-1,-1.1413658E0,-9.670793E-1,-3.2629588E-1,1.343044E0,-7.0420325E-1,8.4340656E-1,-3.4707594E-1,-1.0457722E-1,-9.0868586E-1,-8.472556E-1,1.1133343E-1,-1.2633518E0,2.6085037E-1,-8.0253744E-1,-1.1614666E0,-9.795259E-1,1.379041E-1,-2.29321E-1,-1.106784E0,1.7576244E0,-7.2295845E-1,-1.0018586E0,-5.713217E-1,-9.6096843E-1,9.9097466E-1,-1.0699103E0,-9.490598E-1,-1.0737171E0,-1.21243946E-1,-8.405808E-1,6.087185E-1,2.2228962E-1,-8.963749E-1,-6.231279E-1,9.680815E-1,-9.892408E-1,-7.8451276E-1,2.5982156E-1,-1.1516055E0,-7.991458E-1,-9.732596E-1,-6.7297965E-1,1.0593143E0,-8.8359773E-1,9.532059E-1,-3.591582E-1,1.4102657E0,9.672445E-1,-7.4718165E-1,7.953114E-1,-7.2635216E-1,-6.5562564E-1,-9.1614985E-1],"categories":[],"categories_nodes":[],"categories_segments":[],"categories_sizes":[],"default_left":[true,true,true,true,true,true,true,false,true,true,true,true,true,true,true,true,true,true,true,true,true,true,true,true,true,true,true,true,true,false,true,true,true,true,false,true,true,true,false,true,true,true,true,false,false,true,true,true,true,true,true,false,true,true,true,true,true,false,false,false,false,false,false,false,false,false,false,false,false,false,false,false,false,false,false,false,false,false,false,false,false,false,false,false,false,false,false,false,false,false,false,false,false,false,false,false,false,false,false,false,false],"id":2,"left_children":[1,3,5,7,9,11,13,-1,15,17,19,21,23,25,27,29,31,33,35,37,39,41,43,45,47,49,51,53,55,-1,57,59,61,63,-1,65,67,69,-1,71,73,75,77,-1,-1,79,81,83,85,87,89,-1,91,93,95,97,99,-1,-1,-1,-1,-1,-1,-1,-1,-1,-1,-1,-1,-1,-1,-1,-1,-1,-1,-1,-1,-1,-1,-1,-1,-1,-1,-1,-1,-1,-1,-1,-1,-1,-1,-1,-1,-1,-1,-1,-1,-1,-1,-1,-1],"loss_changes":[8.885742E0,4.03125E0,6.390625E0,7.4824677E0,4.716797E0,3.8742676E0,4.2924805E0,0E0,3.015564E0,7.7930183E0,2.7910156E0,3.1037598E0,3.2001953E0,4.059082E0,1.0917969E1,4.598974E0,2.2395477E0,4.505188E0,1.2885415E1,5.0511475E0,3.5202637E0,2.6813965E0,2.1199267E0,7.068611E0,3.2233887E0,4.076172E0,9.594723E0,4.39899E0,3.6759033E0,0E0,5.107403E0,3.0423965E0,2.5428162E0,3.9795952E0,0E0,2.6007748E-1,7.5070662E0,4.397339E0,0E0,5.443231E0,2.824463E0,2.348999E0,2.6774695E0,0E0,0E0,4.5991516E0,6.0102286E0,4.2648926E0,2.7160797E0,3.790039E0,6.5885043E0,0E0,6.2957144E0,3.6309733E0,5.7843847E0,4.484043E0,2.71167E0,0E0,0E0,0E0,0E0,0E0,0E0,0E0,0E0,0E0,0E0,0E0,0E0,0E0,0E0,0E0,0E0,0E0,0E0,0E0,0E0,0E0,0E0,0E0,0E0,0E0,0E0,0E0,0E0,0E0,0E0,0E0,0E0,0E0,0E0,0E0,0E0,0E0,0E0,0E0,0E0,0E0,0E0,0E0,0E0],"parents":[2147483647,0,0,1,1,2,2,3,3,4,4,5,5,6,6,8,8,9,9,10,10,11,11,12,12,13,13,14,14,15,15,16,16,17,17,18,18,19,19,20,20,21,21,22,22,23,23,24,24,25,25,26,26,27,27,28,28,30,30,31,31,32,32,33,33,35,35,36,36,37,37,39,39,40,40,41,41,42,42,45,45,46,46,47,47,48,48,49,49,50,50,52,52,53,53,54,54,55,55,56,56],"right_children":[2,4,6,8,10,12,14,-1,16,18,20,22,24,26,28,30,32,34,36,38,40,42,44,46,48,50,52,54,56,-1,58,60,62,64,-1,66,68,70,-1,72,74,76,78,-1,-1,80,82,84,86,88,90,-1,92,94,96,98,100,-1,-1,-1,-1,-1,-1,-1,-1,-1,-1,-1,-1,-1,-1,-1,-1,-1,-1,-1,-1,-1,-1,-1,-1,-1,-1,-1,-1,-1,-1,-1,-1,-1,-1,-1,-1,-1,-1,-1,-1,-1,-1,-1,-1],"split_conditions":[2.75E1,7.5E0,5.85E1,4.037E3,4.5E0,2.4185E3,2.11535E5,2.4239491E-1,6.5E0,3.5E0,1.25E1,3.1348075E5,4.7E1,1.1639548E4,2.124785E5,1.8898E4,4.809215E4,3.05E1,1.595E4,5.45E1,1.55E1,2.5E0,1.3285E3,4.5E0,1.3565447E0,1.18865E4,6.436E3,9.5265E3,1.744E3,2.340714E-1,5.092882E7,2.85E1,2.6334E5,2.95E1,1.3783778E-1,3.5135902E1,1.16E2,9.226911E3,1.3633582E-1,2.2234097E1,1.325E2,3.475E4,1.164E4,1.9366847E-1,-2.1887545E-1,5.8654013E0,1.55E1,1.2413479E0,1.3944205E6,5.5E0,1.1203759E0,4.0291324E-1,8.10031E1,1.5E1,5.24585E6,6.932186E-1,3.0711062E4,-2.5417668E-1,3.340003E-2,-3.7900555E-1,7.825512E-2,-2.4076124E-1,-3.4844E-1,-2.9385778E-1,4.137123E-2,-6.879631E-2,-3.320352E-1,5.2728736E-1,-2.1688755E-1,-3.0055758E-1,-1.7139652E-1,-2.8829053E-1,2.972924E-1,-3.209731E-1,-2.8471795E-1,-3.2211515E-1,-3.6373187E-2,-2.5217426E-1,1.8261556E-1,6.668689E-2,-2.6891246E-1,-1.8693838E-1,2.9042447E-1,-2.9677227E-1,-2.3535384E-1,7.794647E-2,-3.4548166E-1,-2.3974375E-1,-2.919779E-1,-2.0189391E-1,3.177943E-1,-2.6507932E-1,2.8596178E-1,-1.0774746E-1,4.2307973E-1,2.9017335E-1,-2.241545E-1,2.3859343E-1,-2.1790566E-1,-1.966877E-1,-2.7484497E-1],"split_indices":[31,17,4,2,21,19,32,0,5,7,5,10,4,23,32,32,10,8,2,21,19,16,19,7,26,31,2,1,1,0,0,8,32,17,0,20,29,23,0,14,29,2,2,0,0,6,8,26,0,21,26,0,20,5,0,26,10,0,0,0,0,0,0,0,0,0,0,0,0,0,0,0,0,0,0,0,0,0,0,0,0,0,0,0,0,0,0,0,0,0,0,0,0,0,0,0,0,0,0,0,0],"split_type":[0,0,0,0,0,0,0,0,0,0,0,0,0,0,0,0,0,0,0,0,0,0,0,0,0,0,0,0,0,0,0,0,0,0,0,0,0,0,0,0,0,0,0,0,0,0,0,0,0,0,0,0,0,0,0,0,0,0,0,0,0,0,0,0,0,0,0,0,0,0,0,0,0,0,0,0,0,0,0,0,0,0,0,0,0,0,0,0,0,0,0,0,0,0,0,0,0,0,0,0,0],"sum_hessian":[1.4120563E4,4.4431157E3,9.677448E3,2.2888055E2,4.2142354E3,3.4760923E3,6.2013555E3,1.8791993E0,2.2700136E2,7.339535E1,4.14084E3,9.2270294E2,2.5533894E3,4.430567E3,1.7707887E3,3.912934E1,1.8787201E2,6.424193E1,9.1534195E0,1.3251674E3,2.8156726E3,9.20176E2,2.5269308E0,1.4589688E2,2.4074924E3,4.4115454E3,1.9021599E1,1.2208838E1,1.7585798E3,1.4615703E0,3.766777E1,3.493578E1,1.5293623E2,6.236168E1,1.880248E0,4.5751815E0,4.578238E0,1.3232821E3,1.8852854E0,3.7496543E0,2.811923E3,9.170509E2,3.1251168E0,1.4794967E0,1.0474341E0,1.3830145E2,7.5954356E0,2.2400437E3,1.6744872E2,4.400314E3,1.1231459E1,1.6801538E0,1.7341446E1,3.583445E0,8.625394E0,5.981538E0,1.7525984E3,3.1211096E1,6.4566755E0,3.3898563E1,1.0372179E0,1.2129873E2,3.16375E1,5.923995E1,3.1217318E0,1.0365775E0,3.538604E0,3.5385184E0,1.0397193E0,1.2945785E3,2.8703604E1,2.0859737E0,1.6636807E0,2.5105247E3,3.0139822E2,9.141828E2,2.8681197E0,1.4553491E0,1.6697676E0,3.4107678E0,1.3489069E2,4.2448835E0,3.3505523E0,2.108687E3,1.3135672E2,1.0379966E0,1.664107E2,1.6081961E2,4.239494E3,9.395088E0,1.836371E0,1.6069044E1,1.2724E0,1.265389E0,2.3180559E0,1.6821549E0,6.9432387E0,2.3301036E0,3.6514342E0,5.2756893E1,1.6998414E3],"tree_param":{"num_deleted":"0","num_feature":"34","num_nodes":"101","size_leaf_vector":"0"}},{"base_weights":[-8.1127554E-1,-8.513053E-1,-7.930038E-1,-8.0760604E-1,-8.8354445E-1,-8.306189E-1,-7.7201384E-1,-5.8864474E-1,-8.2002425E-1,-8.8515323E-1,1.7558147E-1,-8.922621E-1,-8.082516E-1,-7.555227E-1,-8.3273745E-1,-7.044647E-1,-5.889937E-2,-7.510509E-1,-8.609089E-1,-7.9183686E-1,-9.068235E-1,-8.4277844E-1,1.3057154E0,-9.0738845E-1,-5.776633E-1,-7.756619E-1,-8.727423E-1,-7.566675E-1,2.3843035E-1,-5.64726E-1,-8.5237795E-1,-8.0373013E-1,5.7577178E-2,6.160429E-1,-5.476982E-1,-7.743271E-1,-3.792654E-1,-8.8243234E-1,-6.71496E-1,-2.0827254E-2,-8.070896E-1,-9.0800256E-1,4.9929756E-1,-9.118475E-1,-7.558024E-2,6.562382E-2,-7.9467875E-1,-8.199785E-1,-6.972533E-1,-1.8357106E-2,-8.780568E-1,-7.7649623E-1,-7.074283E-1,-6.9520295E-1,1.1853272E0,-6.356304E-1,5.068453E-1,-3.8259137E-1,-8.619339E-1,7.458351E-1,-8.4094584E-1,6.752483E-1,-8.035513E-1,-6.21465E-1,1.2582173E0,-9.8490477E-1,1.8320566E-1,-7.7835846E-1,4.4323644E-1,-1.0123714E0,8.358608E-3,-8.850224E-1,4.9199063E-1,-9.304456E-1,-4.407073E-1,8.849511E-1,-7.568056E-1,4.1214594E-1,-8.160149E-1,-8.373565E-1,-9.385898E-1,-9.2045397E-1,-4.5428774E-1,-7.12821E-1,1.0582811E0,9.615847E-1,-6.7393976E-1,2.945293E-1,-8.9884335E-1,-8.2445353E-1,2.6855823E-1,2.2450887E-1,-7.0949537E-1,-8.7316275E-1,6.9640124E-1,-8.659228E-2,-8.8329315E-1,-7.798781E-1,-2.853544E-1,4.4103745E-1,-7.143897E-1,1.7009075E0,1.6114664E-1,1.5191247E-1,-7.037681E-1,1.41868E0,-2.3483808E-1,7.706722E-1,-6.8955594E-1,-8.6534536E-1,2.7066526E-1],"categories":[],"categories_nodes":[],"categories_segments":[],"categories_sizes":[],"default_left":[true,true,true,true,true,true,true,true,true,true,true,true,true,true,true,true,true,true,true,true,true,false,false,true,true,true,true,true,true,true,true,true,true,true,true,true,true,true,true,true,true,true,false,true,true,true,true,true,true,true,true,true,true,false,true,true,true,true,true,false,false,false,false,false,false,false,false,false,false,false,false,false,false,false,false,false,false,false,false,false,false,false,false,false,false,false,false,false,false,false,false,false,false,false,false,false,false,false,false,false,false,false,false,false,false,false,false,false,false,false,false],"id":3,"left_children":[1,3,5,7,9,11,13,15,17,19,21,23,25,27,29,31,33,35,37,39,41,-1,-1,43,45,47,49,51,53,55,57,59,61,63,65,67,69,71,73,75,77,79,-1,81,83,85,87,89,91,93,95,97,99,-1,101,103,105,107,109,-1,-1,-1,-1,-1,-1,-1,-1,-1,-1,-1,-1,-1,-1,-1,-1,-1,-1,-1,-1,-1,-1,-1,-1,-1,-1,-1,-1,-1,-1,-1,-1,-1,-1,-1,-1,-1,-1,-1,-1,-1,-1,-1,-1,-1,-1,-1,-1,-1,-1,-1,-1],"loss_changes":[8.3359375E0,4.706787E0,6.048828E0,3.9904785E0,3.9100342E0,3.4450684E0,4.831299E0,5.5930843E0,3.7363281E0,3.7313232E0,5.9070005E0,3.258545E0,4.005249E0,5.0722656E0,5.597412E0,5.739895E0,6.133055E0,4.7796936E0,3.357788E0,4.952362E0,3.4022217E0,0E0,0E0,2.7376099E0,5.5271416E0,4.602051E0,3.3434448E0,3.6433105E0,5.8686404E0,6.538187E0,4.491699E0,4.47139E0,5.652924E0,7.019764E0,3.605438E0,3.0484314E0,8.966138E0,3.5215454E0,5.7488174E0,6.818444E0,4.8449707E0,3.0551758E0,0E0,2.5453491E0,4.457393E0,7.8154163E0,3.600542E0,4.8275757E0,6.301819E0,4.0266027E0,2.9708252E0,4.845459E0,1.0261658E1,0E0,1.4170632E0,4.2484074E0,4.1432557E0,8.747587E0,4.2980957E0,0E0,0E0,0E0,0E0,0E0,0E0,0E0,0E0,0E0,0E0,0E0,0E0,0E0,0E0,0E0,0E0,0E0,0E0,0E0,0E0,0E0,0E0,0E0,0E0,0E0,0E0,0E0,0E0,0E0,0E0,0E0,0E0,0E0,0E0,0E0,0E0,0E0,0E0,0E0,0E0,0E0,0E0,0E0,0E0,0E0,0E0,0E0,0E0,0E0,0E0,0E0,0E0],"parents":[2147483647,0,0,1,1,2,2,3,3,4,4,5,5,6,6,7,7,8,8,9,9,10,10,11,11,12,12,13,13,14,14,15,15,16,16,17,17,18,18,19,19,20,20,23,23,24,24,25,25,26,26,27,27,28,28,29,29,30,30,31,31,32,32,33,33,34,34,35,35,36,36,37,37,38,38,39,39,40,40,41,41,43,43,44,44,45,45,46,46,47,47,48,48,49,49,50,50,51,51,52,52,54,54,55,55,56,56,57,57,58,58],"right_children":[2,4,6,8,10,12,14,16,18,20,22,24,26,28,30,32,34,36,38,40,42,-1,-1,44,46,48,50,52,54,56,58,60,62,64,66,68,70,72,74,76,78,80,-1,82,84,86,88,90,92,94,96,98,100,-1,102,104,106,108,110,-1,-1,-1,-1,-1,-1,-1,-1,-1,-1,-1,-1,-1,-1,-1,-1,-1,-1,-1,-1,-1,-1,-1,-1,-1,-1,-1,-1,-1,-1,-1,-1,-1,-1,-1,-1,-1,-1,-1,-1,-1,-1,-1,-1,-1,-1,-1,-1,-1,-1,-1,-1],"split_conditions":[2.75E1,5E-1,5.85E1,6.5E0,5.25E1,2.4185E3,1.117835E0,1.85E1,1.15E1,3.800986E-1,5E-1,3.24885E4,9.590023E-1,2.4697773E1,2.6673875E6,2.425339E4,1.0562178E1,1.435E2,4.786996E3,4.5E0,1.045E2,-2.5283355E-1,3.9171466E-1,3.25E1,5.99E2,7.700623E4,3.4725E3,2.117E5,7.31E3,5E-1,2.7996287E4,7.246292E-2,7.545E3,1.1692E4,4.55E1,3.47335E4,1.2191E4,4.021852E1,1.05E1,1.3769383E4,4.5804863E3,1.15E1,1.4978927E-1,1.9947886E1,1.7E1,1.586469E3,4.2195E3,9.5646554E-1,7.7370375E4,4.4075E3,1.4015E3,3.4178137E4,2.122965E5,-2.085609E-1,7.346556E4,5.324E3,1.2345564E0,1.6888664E0,1.1961E4,2.2375055E-1,-2.5228375E-1,2.025745E-1,-2.410654E-1,-1.8643951E-1,3.7746522E-1,-2.9547143E-1,5.49617E-2,-2.3350754E-1,1.3297094E-1,-3.0371144E-1,2.5075825E-3,-2.6550674E-1,1.475972E-1,-2.791337E-1,-1.3221219E-1,2.6548535E-1,-2.2704169E-1,1.23643786E-1,-2.4480447E-1,-2.5120696E-1,-2.8157696E-1,-2.761362E-1,-1.3628633E-1,-2.1384631E-1,3.1748432E-1,2.8847542E-1,-2.0218194E-1,8.835879E-2,-2.6965302E-1,-2.4733607E-1,8.056747E-2,6.735266E-2,-2.1284862E-1,-2.6194882E-1,2.0892037E-1,-2.5977684E-2,-2.6498795E-1,-2.3396343E-1,-8.560632E-2,1.3231124E-1,-2.1431692E-1,5.1027226E-1,4.8343994E-2,4.557374E-2,-2.1113043E-1,4.2560402E-1,-7.045143E-2,2.3120166E-1,-2.0686679E-1,-2.5960362E-1,8.119958E-2],"split_indices":[31,22,4,21,21,19,26,17,17,26,9,2,26,6,0,3,6,29,23,21,13,0,0,8,19,10,2,32,19,18,10,26,19,33,13,1,33,24,8,3,3,5,0,6,17,23,1,26,10,19,33,3,32,0,10,1,26,25,31,0,0,0,0,0,0,0,0,0,0,0,0,0,0,0,0,0,0,0,0,0,0,0,0,0,0,0,0,0,0,0,0,0,0,0,0,0,0,0,0,0,0,0,0,0,0,0,0,0,0,0,0],"split_type":[0,0,0,0,0,0,0,0,0,0,0,0,0,0,0,0,0,0,0,0,0,0,0,0,0,0,0,0,0,0,0,0,0,0,0,0,0,0,0,0,0,0,0,0,0,0,0,0,0,0,0,0,0,0,0,0,0,0,0,0,0,0,0,0,0,0,0,0,0,0,0,0,0,0,0,0,0,0,0,0,0,0,0,0,0,0,0,0,0,0,0,0,0,0,0,0,0,0,0,0,0,0,0,0,0,0,0,0,0,0,0],"sum_hessian":[1.231908E4,3.8465222E3,8.472558E3,1.6440754E3,2.2024468E3,3.0207095E3,5.4518486E3,9.0835495E1,1.5532399E3,2.1992703E3,3.1764205E0,7.938928E2,2.2268167E3,4.2980396E3,1.1538087E3,7.426818E1,1.6567316E1,5.852611E2,9.679788E2,4.2154727E2,1.7777231E3,1.8045833E0,1.3718371E0,7.5567456E2,3.8218224E1,1.4879325E3,7.388842E2,4.2933335E3,4.706207E0,8.08122E1,1.0729966E3,6.566039E1,8.607789E0,6.849324E0,9.717991E0,5.497598E2,3.5501297E1,8.659232E2,1.0205555E2,8.223524E0,4.1332376E2,1.7765878E3,1.1353812E0,7.5154956E2,4.1249957E0,9.816707E0,2.8401518E1,9.445911E2,5.433414E2,4.5951653E0,7.3428906E2,3.0502305E3,1.2431033E3,2.5035422E0,2.2026646E0,7.6178406E1,4.633797E0,2.2208778E1,1.0507877E3,1.0933954E0,6.456699E1,5.138149E0,3.4696405E0,2.3510196E0,4.4983044E0,5.8632436E0,3.8547473E0,5.4830505E2,1.4547386E0,1.2869619E1,2.2631676E1,8.646499E2,1.2733337E0,4.666494E1,5.5390614E1,3.5957596E0,4.627764E0,2.6753716E0,4.1064838E2,5.453636E2,1.2312241E3,7.366813E2,1.4868291E1,2.878554E0,1.2464415E0,4.303242E0,5.5134645E0,2.3195336E0,2.6081984E1,9.4096533E2,3.6257665E0,6.894372E0,5.3644696E2,1.9916538E0,2.6035113E0,4.941425E0,7.293476E2,3.0287876E3,2.1442884E1,7.1139717E0,1.2359893E3,1.0256134E0,1.1770512E0,5.9681654E0,7.021024E1,1.6690556E0,2.9647415E0,4.3511014E0,1.7857676E1,1.0478674E3,2.9202886E0],"tree_param":{"num_deleted":"0","num_feature":"34","num_nodes":"111","size_leaf_vector":"0"}},{"base_weights":[-6.695339E-1,-6.866519E-1,-6.176825E-1,-7.252956E-1,-6.6658986E-1,-5.9324133E-1,-6.9895285E-1,-6.4900625E-1,-7.547674E-1,-5.7956564E-1,-6.7863244E-1,-5.965865E-1,4.4745645E-1,-7.235755E-1,-3.0956608E-1,-5.5229384E-1,-7.237043E-1,-5.8407277E-1,-7.669296E-1,-6.4863354E-1,-3.8380304E-1,-8.6564744E-1,-6.720039E-1,-5.982094E-1,7.067288E-1,-4.1718277E-1,1.7077498E0,3.6238863E-3,-7.3575985E-1,-6.104835E-2,-1.0264245E0,-5.6182563E-1,1.2517425E0,-7.5200814E-1,1.8347429E-1,-6.4297014E-1,1.943723E-1,-7.6930404E-1,1.1640924E-2,-7.5499946E-1,-5.192187E-1,3.7902838E-1,-4.5769724E-1,4.5138744E-1,-9.014828E-1,1.2288414E0,-6.727467E-1,-2.4095923E-1,-6.0436976E-1,7.1952367E-1,-9.349748E-1,8.739923E-1,-6.2097377E-1,-7.421045E-1,4.4075695E-1,-2.499779E-1,1.4479094E0,-1.1120557E0,-1.9851811E-1,-3.2811245E-1,-6.322616E-1,-7.8625137E-1,-3.566583E-1,5.827553E-1,-5.119373E-1,-6.668386E-1,6.8690753E-1,1.4231681E0,-3.5925642E-1,4.3018463E-1,-7.7054775E-1,-5.589663E-1,9.582862E-1,-7.8712964E-1,4.812981E-2,-5.323359E-1,8.4020275E-1,1.6383266E0,9.894548E-2,-6.808949E-1,-2.7020878E-1,9.904363E-1,-6.7599976E-1,-9.318414E-1,1.4012004E-1,-7.8278136E-1,-6.6062367E-1,-7.075048E-1,1.4417447E-1,-1.1483448E-1,-6.090185E-1,-7.2719604E-1,1.7007521E0,-1.008399E0,3.6062706E-1,-7.472372E-1,4.1225252E-1,-7.266597E-1,1.4226195E0,-4.2990607E-1,1.0446324E0,2.613344E0,-2.6992983E-1],"categories":[],"categories_nodes":[],"categories_segments":[],"categories_sizes":[],"default_left":[true,true,true,true,true,true,true,true,true,true,true,true,true,true,true,true,true,true,true,true,true,true,true,true,false,true,false,true,true,true,true,true,false,true,true,true,true,true,true,true,true,true,true,true,true,false,true,true,true,false,false,true,true,true,true,true,true,false,false,false,false,false,false,false,false,false,false,false,false,false,false,false,false,false,false,false,false,false,false,false,false,false,false,false,false,false,false,false,false,false,false,false,false,false,false,false,false,false,false,false,false,false,false],"id":4,"left_children":[1,3,5,7,9,11,13,15,17,19,21,23,25,27,29,31,33,35,37,39,41,43,45,47,-1,49,-1,51,53,55,57,59,-1,61,63,65,67,69,71,73,75,77,79,81,83,-1,85,87,89,-1,-1,91,93,95,97,99,101,-1,-1,-1,-1,-1,-1,-1,-1,-1,-1,-1,-1,-1,-1,-1,-1,-1,-1,-1,-1,-1,-1,-1,-1,-1,-1,-1,-1,-1,-1,-1,-1,-1,-1,-1,-1,-1,-1,-1,-1,-1,-1,-1,-1,-1,-1],"loss_changes":[9.115234E0,5.7736816E0,4.9035034E0,5.685913E0,5.187256E0,7.4557495E0,5.6572876E0,5.1814575E0,3.65271E0,8.596024E0,5.209717E0,4.7773438E0,8.54489E0,5.107971E0,6.748069E0,6.565178E0,1.1247498E1,6.3406525E0,3.411499E0,6.2444153E0,9.928497E0,7.7908783E0,7.2038574E0,4.3809204E0,0E0,3.6548777E0,0E0,6.2454877E0,4.5572205E0,8.758194E0,4.7246647E-1,5.3861313E0,0E0,5.4025116E0,4.156402E0,4.466015E0,7.520834E0,3.0690918E0,4.0906487E0,6.8095245E0,4.382622E0,5.421362E0,6.4373283E0,3.5929596E0,4.9573364E0,0E0,5.5062256E0,6.6655207E0,4.529907E0,0E0,0E0,7.588586E0,2.908597E0,3.6499634E0,5.2370834E0,6.7447157E0,7.5611734E0,0E0,0E0,0E0,0E0,0E0,0E0,0E0,0E0,0E0,0E0,0E0,0E0,0E0,0E0,0E0,0E0,0E0,0E0,0E0,0E0,0E0,0E0,0E0,0E0,0E0,0E0,0E0,0E0,0E0,0E0,0E0,0E0,0E0,0E0,0E0,0E0,0E0,0E0,0E0,0E0,0E0,0E0,0E0,0E0,0E0,0E0],"parents":[2147483647,0,0,1,1,2,2,3,3,4,4,5,5,6,6,7,7,8,8,9,9,10,10,11,11,12,12,13,13,14,14,15,15,16,16,17,17,18,18,19,19,20,20,21,21,22,22,23,23,25,25,27,27,28,28,29,29,30,30,31,31,33,33,34,34,35,35,36,36,37,37,38,38,39,39,40,40,41,41,42,42,43,43,44,44,46,46,47,47,48,48,51,51,52,52,53,53,54,54,55,55,56,56],"right_children":[2,4,6,8,10,12,14,16,18,20,22,24,26,28,30,32,34,36,38,40,42,44,46,48,-1,50,-1,52,54,56,58,60,-1,62,64,66,68,70,72,74,76,78,80,82,84,-1,86,88,90,-1,-1,92,94,96,98,100,102,-1,-1,-1,-1,-1,-1,-1,-1,-1,-1,-1,-1,-1,-1,-1,-1,-1,-1,-1,-1,-1,-1,-1,-1,-1,-1,-1,-1,-1,-1,-1,-1,-1,-1,-1,-1,-1,-1,-1,-1,-1,-1,-1,-1,-1,-1],"split_conditions":[4.65E1,5.85E1,1.018E4,1.35E1,6.6905E3,1.0113E4,1.24070376E-1,2.0798845E1,4.7E1,4.3425788E7,9.131109E0,3.4942E4,2.252061E3,4.7E1,5.3565693E0,2.0765255E1,1.994479E1,1.8465134E1,1.221095E5,5E-1,1.8183304E1,3.143424E4,9.163837E0,2.6945E3,2.1201865E-1,6.6081275E6,5.12325E-1,9.8242E4,3.44695E4,4.6922035E0,4.5816753E3,1.9811368E-2,3.7552276E-1,3.72121E5,3.5613952E0,1.6216717E0,4.520692E-1,1.78E3,2.7077383E3,6.5865E3,4.45E1,1.35E1,9.74155E4,1.25E1,3.1704836E4,3.6865243E-1,1.1135E3,1.2326045E4,2.6512874E-2,2.158571E-1,-2.8049245E-1,3.53335E4,1.75E1,1.189715E4,1.5E0,8.105365E1,1.3800385E3,-3.336167E-1,-5.9555437E-2,-9.843374E-2,-1.8967848E-1,-2.3587541E-1,-1.069975E-1,1.748266E-1,-1.535812E-1,-2.0005159E-1,2.0607227E-1,4.2695042E-1,-1.0777693E-1,1.290554E-1,-2.3116434E-1,-1.6768989E-1,2.8748587E-1,-2.361389E-1,1.4438943E-2,-1.5970077E-1,2.5206083E-1,4.9149802E-1,2.9683646E-2,-2.0426849E-1,-8.106264E-2,2.971309E-1,-2.0279993E-1,-2.7955243E-1,4.2036016E-2,-2.3483442E-1,-1.9818711E-1,-2.1225145E-1,4.325234E-2,-3.4450345E-2,-1.8270555E-1,-2.1815883E-1,5.1022565E-1,-3.025197E-1,1.0818812E-1,-2.2417118E-1,1.23675756E-1,-2.1799792E-1,4.2678586E-1,-1.2897183E-1,3.1338975E-1,7.840032E-1,-8.097895E-2],"split_indices":[31,4,19,21,1,19,24,14,4,0,20,1,23,4,25,14,6,6,33,9,20,10,20,1,0,0,0,32,2,25,23,24,0,32,25,26,26,32,23,1,21,29,32,17,3,0,19,3,26,0,0,32,8,23,9,20,23,0,0,0,0,0,0,0,0,0,0,0,0,0,0,0,0,0,0,0,0,0,0,0,0,0,0,0,0,0,0,0,0,0,0,0,0,0,0,0,0,0,0,0,0,0,0],"split_type":[0,0,0,0,0,0,0,0,0,0,0,0,0,0,0,0,0,0,0,0,0,0,0,0,0,0,0,0,0,0,0,0,0,0,0,0,0,0,0,0,0,0,0,0,0,0,0,0,0,0,0,0,0,0,0,0,0,0,0,0,0,0,0,0,0,0,0,0,0,0,0,0,0,0,0,0,0,0,0,0,0,0,0,0,0,0,0,0,0,0,0,0,0,0,0,0,0,0,0,0,0,0,0],"sum_hessian":[1.0746267E4,8.0698765E3,2.6763901E3,2.7457742E3,5.324102E3,2.0639722E3,6.1241785E2,7.7156323E2,1.9742109E3,6.531697E2,4.6709326E3,2.0577844E3,6.1877146E0,5.75188E2,3.7229877E1,3.3989328E2,4.3166992E2,1.3457018E2,1.8396407E3,4.8111273E2,1.7205695E2,1.5545177E2,4.515481E3,2.0557656E3,2.018795E0,4.066692E0,2.1210227E0,9.49015E0,5.656978E2,2.8451563E1,8.7783165E0,3.387918E2,1.101472E0,4.1877524E2,1.2894702E1,1.252665E2,9.303671E0,1.8340594E3,5.581349E0,2.614189E2,2.1969382E2,1.4830285E1,1.5722667E2,3.8105054E0,1.5164125E2,1.1180466E0,4.514363E3,3.5528427E1,2.0202372E3,1.1507832E0,2.9159088E0,3.798167E0,5.6919837E0,5.6303076E2,2.6670444E0,2.602716E1,2.424402E0,7.644431E0,1.1338849E0,7.976895E1,2.5902286E2,3.8448438E2,3.4290844E1,8.294367E0,4.6003356E0,1.2354766E2,1.718841E0,2.4019194E0,6.9017515E0,1.5424852E0,1.832517E3,3.737833E0,1.8435156E0,2.51382E2,1.0036923E1,2.1819682E2,1.4969839E0,1.815967E0,1.30143175E1,7.057648E1,8.665019E1,2.6600876E0,1.1504178E0,1.4744908E2,4.192175E0,4.41702E2,4.0726606E3,1.5687624E1,1.9840805E1,1.924617E1,2.0009911E3,1.3343513E0,2.4638157E0,4.0616155E0,1.6303681E0,5.608895E2,2.1412542E0,1.3371339E0,1.3299106E0,2.3437662E1,2.5894983E0,1.1338596E0,1.2905424E0],"tree_param":{"num_deleted":"0","num_feature":"34","num_nodes":"103","size_leaf_vector":"0"}},{"base_weights":[-5.46363E-1,-5.2300346E-1,-5.8678806E-1,-5.480882E-1,-4.794347E-1,-5.617106E-1,-6.580763E-1,-4.4730452E-1,-5.6632066E-1,-1.2991004E-1,-4.874919E-1,-5.749206E-1,-3.7462854E-1,-6.630042E-1,2.5790283E-1,-6.9856817E-1,-4.0713125E-1,-5.677905E-1,5.8689934E-1,-2.5901836E-1,9.575452E-1,-4.9024385E-1,4.7699267E-1,-6.60385E-1,-5.4697424E-1,6.9308066E-1,-4.09916E-1,-6.668319E-1,3.7787578E-1,1.0633556E0,-5.67924E-1,-7.475295E-1,6.2091154E-1,4.135814E-1,-4.1970053E-1,-5.199054E-1,-6.0376835E-1,-7.730664E-1,1.7445024E0,7.642047E-1,-3.7808418E-1,-1.2416051E-1,2.1322312E0,-5.1074874E-1,-3.5169482E-1,-7.463233E-1,1.0110195E0,-6.7699033E-1,4.565587E-1,-5.597756E-1,-2.6257446E-1,-1.6994146E-1,1.6984357E0,-4.3863443E-1,5.8442086E-1,-6.7703557E-1,-2.2960615E-1,1.2894313E0,-7.0944273E-1,-1.2629743E-1,1.7043164E0,-7.170321E-1,-1.0835572E-1,-8.9069533E-1,-1.6807671E-1,1.4171326E0,-6.1808616E-1,-5.4331464E-1,1.4001858E0,-2.8856862E-1,-4.9046582E-1,-1.3657965E-1,-5.3186053E-1,1.2386993E0,-6.059745E-1,-5.190398E-1,1.8709656E0,9.8042205E-2,-6.4956504E-1,8.9426625E-1,-7.902096E-1,-5.140205E-1,5.1624864E-1,-5.681592E-1,-2.0974214E-1,-2.0253906E-1,2.003331E0,-6.836535E-1,2.0316729E-1,1.8344575E0,-1.8931411E-1,-5.7381684E-1,-3.189026E-1,-3.1704414E-1,1.351092E0,-8.074627E-1,8.905101E-1,-8.536505E-1,-3.667296E-1,1.1607299E0,-6.6727823E-1,-4.442636E-2,-6.845431E-1,-5.10701E-1,7.676551E-1],"categories":[],"categories_nodes":[],"categories_segments":[],"categories_sizes":[],"default_left":[true,true,true,true,true,true,true,true,true,true,true,true,true,true,true,true,true,true,true,true,true,true,true,true,true,true,true,true,true,true,true,true,true,true,true,true,true,false,false,true,true,true,false,true,true,false,true,true,true,true,true,true,false,true,true,true,true,false,false,false,false,false,false,false,false,false,false,false,false,false,false,false,false,false,false,false,false,false,false,false,false,false,false,false,false,false,false,false,false,false,false,false,false,false,false,false,false,false,false,false,false,false,false,false,false],"id":5,"left_children":[1,3,5,7,9,11,13,15,17,19,21,23,25,27,29,31,33,35,37,39,41,43,45,47,49,51,53,55,57,59,61,63,65,67,69,71,73,-1,-1,75,77,79,-1,81,83,-1,85,87,89,91,93,95,-1,97,99,101,103,-1,-1,-1,-1,-1,-1,-1,-1,-1,-1,-1,-1,-1,-1,-1,-1,-1,-1,-1,-1,-1,-1,-1,-1,-1,-1,-1,-1,-1,-1,-1,-1,-1,-1,-1,-1,-1,-1,-1,-1,-1,-1,-1,-1,-1,-1,-1,-1],"loss_changes":[8.632324E0,6.3043213E0,5.8133545E0,6.7408447E0,6.1419983E0,6.124695E0,4.207367E0,5.6494064E0,5.790283E0,7.4101963E0,5.949524E0,5.357422E0,6.767067E0,3.7967224E0,4.2656856E0,5.6088905E0,5.4265366E0,5.2261963E0,8.574356E0,5.940199E0,7.4143443E0,5.922241E0,5.088259E0,1.1162582E1,6.4432373E0,5.3873415E0,5.03063E0,3.8009033E0,4.778342E0,2.6058009E0,1.5323675E-1,6.2579765E0,4.2256665E0,8.487757E0,4.5171204E0,6.282715E0,8.18927E0,0E0,0E0,8.308121E0,5.5210233E0,3.3346388E0,0E0,6.544464E0,8.487759E0,0E0,6.4781284E0,3.5228577E0,8.507711E0,5.6725464E0,7.4470577E0,3.4713824E0,0E0,4.5532017E0,4.4693756E0,4.082855E0,6.4854827E0,0E0,0E0,0E0,0E0,0E0,0E0,0E0,0E0,0E0,0E0,0E0,0E0,0E0,0E0,0E0,0E0,0E0,0E0,0E0,0E0,0E0,0E0,0E0,0E0,0E0,0E0,0E0,0E0,0E0,0E0,0E0,0E0,0E0,0E0,0E0,0E0,0E0,0E0,0E0,0E0,0E0,0E0,0E0,0E0,0E0,0E0,0E0,0E0],"parents":[2147483647,0,0,1,1,2,2,3,3,4,4,5,5,6,6,7,7,8,8,9,9,10,10,11,11,12,12,13,13,14,14,15,15,16,16,17,17,18,18,19,19,20,20,21,21,22,22,23,23,24,24,25,25,26,26,27,27,28,28,29,29,30,30,31,31,32,32,33,33,34,34,35,35,36,36,39,39,40,40,41,41,43,43,44,44,46,46,47,47,48,48,49,49,50,50,51,51,53,53,54,54,55,55,56,56],"right_children":[2,4,6,8,10,12,14,16,18,20,22,24,26,28,30,32,34,36,38,40,42,44,46,48,50,52,54,56,58,60,62,64,66,68,70,72,74,-1,-1,76,78,80,-1,82,84,-1,86,88,90,92,94,96,-1,98,100,102,104,-1,-1,-1,-1,-1,-1,-1,-1,-1,-1,-1,-1,-1,-1,-1,-1,-1,-1,-1,-1,-1,-1,-1,-1,-1,-1,-1,-1,-1,-1,-1,-1,-1,-1,-1,-1,-1,-1,-1,-1,-1,-1,-1,-1,-1,-1,-1,-1],"split_conditions":[9.2982745E-1,4.15E1,2.9736517E1,5.5E0,5.568578E3,5E-1,2.3042362E1,3.1846808E2,9.288405E-1,1.4972231E5,3.5E0,3.8035835E1,2.1765E3,1.605E2,2.314365E0,6.621915E7,3.4485468E2,5E-1,1.65E1,1.35E1,2.3860697E1,3.5E0,2.9235864E-1,2.9395863E1,4.5E0,2.1210299E1,3.33775E4,3.9349907E1,4E1,1.0766761E0,4.610247E1,1.85E1,5.5763508E1,1.42445E4,1.0275068E1,1.942163E6,2.7424212E0,-2.3191993E-1,5.233508E-1,1.55E1,1.2573E4,1.153295E5,6.396694E-1,9.2801785E-1,4.108E3,-2.23897E-1,5.86E3,1.1198E5,1.8222736E-2,1.399655E-1,2.06147E1,4.05E1,5.095307E-1,1.686E3,2.6843E4,2.6185E3,1.225E2,3.868294E-1,-2.1283282E-1,-3.788923E-2,5.1129496E-1,-2.1510963E-1,-3.250672E-2,-2.672086E-1,-5.0423015E-2,4.251398E-1,-1.8542585E-1,-1.629944E-1,4.2005578E-1,-8.657059E-2,-1.4713976E-1,-4.0973894E-2,-1.5955816E-1,3.716098E-1,-1.8179235E-1,-1.5571195E-1,5.612897E-1,2.9412663E-2,-1.9486952E-1,2.6827988E-1,-2.3706289E-1,-1.5420616E-1,1.548746E-1,-1.7044777E-1,-6.292265E-2,-6.076172E-2,6.009993E-1,-2.0509605E-1,6.095019E-2,5.5033726E-1,-5.6794237E-2,-1.7214505E-1,-9.567079E-2,-9.511325E-2,4.0532762E-1,-2.4223882E-1,2.6715302E-1,-2.5609517E-1,-1.1001888E-1,3.4821898E-1,-2.0018348E-1,-1.3327909E-2,-2.0536293E-1,-1.5321031E-1,2.3029654E-1],"split_indices":[26,31,14,5,3,18,6,23,26,10,18,20,33,29,25,0,23,22,21,29,14,7,26,14,7,14,2,14,13,26,20,8,20,2,6,0,14,0,0,21,1,32,0,26,19,0,19,33,24,24,6,31,0,19,33,1,29,0,0,0,0,0,0,0,0,0,0,0,0,0,0,0,0,0,0,0,0,0,0,0,0,0,0,0,0,0,0,0,0,0,0,0,0,0,0,0,0,0,0,0,0,0,0,0,0],"split_type":[0,0,0,0,0,0,0,0,0,0,0,0,0,0,0,0,0,0,0,0,0,0,0,0,0,0,0,0,0,0,0,0,0,0,0,0,0,0,0,0,0,0,0,0,0,0,0,0,0,0,0,0,0,0,0,0,0,0,0,0,0,0,0,0,0,0,0,0,0,0,0,0,0,0,0,0,0,0,0,0,0,0,0,0,0,0,0,0,0,0,0,0,0,0,0,0,0,0,0,0,0,0,0,0,0],"sum_hessian":[9.465342E3,6.0077246E3,3.4576174E3,3.8052622E3,2.2024624E3,2.5644028E3,8.932144E2,5.8685175E2,3.2184104E3,5.001281E1,2.1524495E3,2.393335E3,1.7106795E2,8.8870935E2,4.505074E0,7.863572E1,5.0821603E2,3.2148206E3,3.5898092E0,4.5386143E1,4.626666E0,2.146816E3,5.633738E0,5.841818E2,1.8091531E3,4.8764997E0,1.6619145E2,8.858113E2,2.898057E0,2.1350617E0,2.3700125E0,7.624017E1,2.3955414E0,7.184722E0,5.010313E2,1.3858116E3,1.829009E3,1.8033712E0,1.786438E0,4.1660213E0,4.122012E1,2.8742373E0,1.7524287E0,1.8677126E3,2.791032E2,1.5911926E0,4.042546E0,5.7601227E2,8.169557E0,1.7303007E3,7.885244E1,3.0711288E0,1.8053707E0,1.6206943E2,4.122016E0,8.650742E2,2.0737057E1,1.4753296E0,1.4227273E0,1.028701E0,1.1063608E0,1.3664386E0,1.0035739E0,6.070469E1,1.5535486E1,1.3708283E0,1.0247132E0,3.8753622E0,3.3093596E0,1.77392E2,3.236393E2,4.2289124E1,1.3435226E3,1.5171295E0,1.8274918E3,2.1751041E0,1.9909172E0,1.52003765E1,2.6019745E1,1.0010033E0,1.8732339E0,1.8622793E3,5.4333153E0,1.0935094E2,1.6975227E2,2.1765728E0,1.8659728E0,5.71906E2,4.106291E0,2.0199463E0,6.1496105E0,1.6336858E3,9.661485E1,7.7054955E1,1.7974823E0,2.0670369E0,1.0040921E0,2.232771E1,1.3974173E2,2.8722482E0,1.2497679E0,1.0227011E1,8.548472E2,1.6557846E1,4.1792107E0],"tree_param":{"num_deleted":"0","num_feature":"34","num_nodes":"105","size_leaf_vector":"0"}},{"base_weights":[-4.3810007E-1,-5.2304727E-1,-4.2576802E-1,-5.9187216E-1,-4.2086235E-1,-4.7427392E-1,-4.001142E-1,8.356769E-1,-5.9878635E-1,1.5601702E-1,-4.4944987E-1,-2.3759428E-1,-4.8372498E-1,-2.951809E-1,-4.13545E-1,-2.4357367E-1,1.6004726E0,-6.048965E-1,8.913877E-1,1.3134588E0,-3.2994026E-1,-5.6216407E-1,-3.1364653E-1,7.4384224E-1,-3.0053073E-1,-3.01586E-1,-4.9570546E-1,-3.2164901E-1,3.8849023E-1,-4.3050018E-1,-3.1959832E-1,-7.475664E-1,-5.447514E-1,2.077446E0,-4.04487E-1,-7.5804937E-1,4.004212E-1,-2.6369396E-1,-6.6065186E-1,6.8108016E-1,-3.5635144E-1,1.5262762E0,-4.916315E-1,-3.6920357E-1,5.201209E-1,-4.5694098E-1,6.678466E-2,-1.0861945E-1,-5.016066E-1,-1.1240725E-2,-3.6471322E-1,1.2811491E-3,1.6016287E0,2.773528E-1,-4.3334687E-1,-7.1772134E-1,-2.653494E-1,-7.855859E-1,-2.2204539E-1,-1.4120565E-1,-5.737758E-1,2.524055E-1,2.6441998E0,-9.277263E-1,3.5113424E-1,9.827236E-1,-7.4577624E-1,-3.523823E-1,8.5118234E-1,-9.0263355E-1,-5.406997E-1,9.162958E-2,1.8449376E0,7.396669E-1,-3.871075E-1,2.3375154E0,-1.9925003E-1,-6.3567054E-1,-8.7289214E-2,-7.2900397E-1,-2.0415962E-1,1.2773393E0,-5.970097E-1,-5.439641E-1,7.310924E-2,5.4735565E-1,-3.6176047E-1,-2.4939203E-1,1.4493582E0,-5.085961E-1,-1.3049558E-1,-9.464772E-2,2.2515411E0,4.1204843E-1,-3.863251E-1,-4.7448102E-1,1.1935017E0,-7.268626E-2,2.6050959E0,6.54103E-1,-8.944492E-1,-4.2684284E-1,-6.900431E-1,-9.294136E-1,-2.4916917E-1,6.857882E-1,-2.837446E-1],"categories":[],"categories_nodes":[],"categories_segments":[],"categories_sizes":[],"default_left":[true,true,true,true,true,true,true,true,true,true,true,true,true,true,true,false,false,true,false,true,true,true,true,true,true,true,true,true,true,true,true,true,true,true,false,true,true,true,true,true,true,true,true,true,true,true,true,true,true,true,true,true,true,true,true,true,true,false,false,false,false,false,false,false,false,false,false,false,false,false,false,false,false,false,false,false,false,false,false,false,false,false,false,false,false,false,false,false,false,false,false,false,false,false,false,false,false,false,false,false,false,false,false,false,false,false,false],"id":6,"left_children":[1,3,5,7,9,11,13,15,17,19,21,23,25,27,29,-1,-1,31,-1,33,35,37,39,41,43,45,47,49,51,53,55,57,59,61,-1,63,65,67,69,71,73,75,77,79,81,83,85,87,89,91,93,95,97,99,101,103,105,-1,-1,-1,-1,-1,-1,-1,-1,-1,-1,-1,-1,-1,-1,-1,-1,-1,-1,-1,-1,-1,-1,-1,-1,-1,-1,-1,-1,-1,-1,-1,-1,-1,-1,-1,-1,-1,-1,-1,-1,-1,-1,-1,-1,-1,-1,-1,-1,-1,-1],"loss_changes":[8.644775E0,7.2669067E0,9.014893E0,6.7792053E0,7.220398E0,5.5968018E0,6.7056274E0,3.2652197E0,6.3085938E0,1.2365388E1,6.1509476E0,6.401243E0,5.206421E0,1.0135677E1,6.699707E0,0E0,0E0,5.012909E0,0E0,9.336982E0,5.225035E0,6.4286118E0,8.302769E0,6.8547983E0,5.5289564E0,8.845625E0,5.2025146E0,7.1226997E0,9.896396E0,7.4414062E0,1.4066788E1,3.5145035E0,5.166519E0,4.136057E0,0E0,2.2584085E0,5.051869E0,5.9748316E0,4.3948975E0,5.424843E0,6.4411297E0,6.2189054E0,1.3117105E-1,5.075177E0,7.2995834E0,5.0431213E0,9.787768E0,8.220737E0,5.812805E0,1.266671E1,8.01828E0,1.0194495E1,8.754103E0,7.2790356E0,5.7478027E0,7.5623207E0,1.03871E1,0E0,0E0,0E0,0E0,0E0,0E0,0E0,0E0,0E0,0E0,0E0,0E0,0E0,0E0,0E0,0E0,0E0,0E0,0E0,0E0,0E0,0E0,0E0,0E0,0E0,0E0,0E0,0E0,0E0,0E0,0E0,0E0,0E0,0E0,0E0,0E0,0E0,0E0,0E0,0E0,0E0,0E0,0E0,0E0,0E0,0E0,0E0,0E0,0E0,0E0],"parents":[2147483647,0,0,1,1,2,2,3,3,4,4,5,5,6,6,7,7,8,8,9,9,10,10,11,11,12,12,13,13,14,14,17,17,19,19,20,20,21,21,22,22,23,23,24,24,25,25,26,26,27,27,28,28,29,29,30,30,31,31,32,32,33,33,35,35,36,36,37,37,38,38,39,39,40,40,41,41,42,42,43,43,44,44,45,45,46,46,47,47,48,48,49,49,50,50,51,51,52,52,53,53,54,54,55,55,56,56],"right_children":[2,4,6,8,10,12,14,16,18,20,22,24,26,28,30,-1,-1,32,-1,34,36,38,40,42,44,46,48,50,52,54,56,58,60,62,-1,64,66,68,70,72,74,76,78,80,82,84,86,88,90,92,94,96,98,100,102,104,106,-1,-1,-1,-1,-1,-1,-1,-1,-1,-1,-1,-1,-1,-1,-1,-1,-1,-1,-1,-1,-1,-1,-1,-1,-1,-1,-1,-1,-1,-1,-1,-1,-1,-1,-1,-1,-1,-1,-1,-1,-1,-1,-1,-1,-1,-1,-1,-1,-1,-1],"split_conditions":[1.65E1,5E-1,5.85E1,1.5163706E-2,2.1438585E6,5.5E0,7.9833613E3,1.25E1,6.88158E5,3.15E1,7.15E1,3.0657125E4,4.7E1,1.9307468E1,2.65E1,-7.3072106E-2,4.801418E-1,4.05E1,2.6741633E-1,1.25E1,7.681408E4,1.25E1,8.664175E0,4.55E1,2.5947578E4,9.563E3,4.303439E3,1.0400312E-2,1.025E2,4.5E0,1.2545E3,6.267048E7,5.2402206E-3,1.15E1,-1.2134611E-1,3.1453276E1,2.8329492E3,2.45E1,5.669239E4,2.65E1,3.245E2,1.89244E5,7.3033E4,7.8012755E6,5.0385E3,3.308303E1,2.1966267E1,5.9822644E7,3.349E4,7.939204E3,3.1331092E4,2.59495E4,6.3035E3,3.1952774E1,6.601119E7,2.4739163E3,3.15E1,-2.3567577E-1,-6.661362E-2,-4.23617E-2,-1.7213276E-1,7.572165E-2,7.9326E-1,-2.783179E-1,1.0534028E-1,2.948171E-1,-2.2373287E-1,-1.0571469E-1,2.553547E-1,-2.7079007E-1,-1.6220993E-1,2.7488874E-2,5.534813E-1,2.2190008E-1,-1.1613225E-1,7.012546E-1,-5.977501E-2,-1.9070117E-1,-2.6186766E-2,-2.187012E-1,-6.124789E-2,3.832018E-1,-1.7910293E-1,-1.6318923E-1,2.1932773E-2,1.642067E-1,-1.08528145E-1,-7.481761E-2,4.3480748E-1,-1.5257885E-1,-3.9148673E-2,-2.8394317E-2,6.7546237E-1,1.23614535E-1,-1.1589753E-1,-1.4234431E-1,3.5805053E-1,-2.1805879E-2,7.815288E-1,1.962309E-1,-2.6833478E-1,-1.2805286E-1,-2.0701294E-1,-2.788241E-1,-7.475075E-2,2.0573647E-1,-8.512338E-2],"split_indices":[31,9,4,25,0,21,3,8,32,29,29,10,4,6,21,0,0,29,0,31,10,21,14,13,3,19,3,24,29,17,19,0,24,17,0,14,23,8,10,21,19,32,32,0,19,14,14,0,1,3,10,1,19,14,0,23,13,0,0,0,0,0,0,0,0,0,0,0,0,0,0,0,0,0,0,0,0,0,0,0,0,0,0,0,0,0,0,0,0,0,0,0,0,0,0,0,0,0,0,0,0,0,0,0,0,0,0],"split_type":[0,0,0,0,0,0,0,0,0,0,0,0,0,0,0,0,0,0,0,0,0,0,0,0,0,0,0,0,0,0,0,0,0,0,0,0,0,0,0,0,0,0,0,0,0,0,0,0,0,0,0,0,0,0,0,0,0,0,0,0,0,0,0,0,0,0,0,0,0,0,0,0,0,0,0,0,0,0,0,0,0,0,0,0,0,0,0,0,0,0,0,0,0,0,0,0,0,0,0,0,0,0,0,0,0,0,0],"sum_hessian":[8.463789E3,1.0677003E3,7.396089E3,6.351284E2,4.3257196E2,2.5524548E3,4.843634E3,2.483602E0,6.3264484E2,2.0213724E1,4.1235822E2,9.90143E1,2.4534404E3,5.522163E2,4.2914175E3,1.3126949E0,1.1709071E0,6.306531E2,1.9917612E0,5.473719E0,1.4740005E1,2.2361908E2,1.8873915E2,5.314865E0,9.369943E1,1.5303432E2,2.3004062E3,5.3214404E2,2.0072266E1,3.6322922E3,6.5912555E2,1.8363159E2,4.4702148E2,3.643955E0,1.8297641E0,9.268983E0,5.471022E0,5.6393696E1,1.6722539E2,7.15393E0,1.8158522E2,3.109941E0,2.2049243E0,8.697167E1,6.727755E0,1.0746998E2,4.556434E1,3.4834667E1,2.2655715E3,6.4985725E1,4.671583E2,1.59745655E1,4.0976996E0,1.4162693E1,3.6181294E3,7.757641E1,5.8154913E2,1.7078134E2,1.2850246E1,3.0387606E1,4.1663388E2,1.20595E0,2.438005E0,8.18108E0,1.0879024E0,3.7225027E0,1.7485194E0,5.287168E1,3.522013E0,5.3259335E1,1.1396605E2,5.464894E0,1.6890365E0,4.327337E0,1.7725787E2,1.8741566E0,1.2357843E0,1.2039357E0,1.0009885E0,2.6274813E1,6.069686E1,3.9243345E0,2.8034205E0,9.229142E1,1.5178558E1,2.1347729E1,2.421661E1,3.27183E1,2.1163678E0,2.223327E3,4.2244488E1,6.359959E1,1.3861331E0,1.215687E1,4.5500143E2,1.1848411E1,4.1261544E0,1.8831586E0,2.2145412E0,1.1051337E1,3.1113565E0,3.5313176E3,8.68117E1,5.2757114E1,2.4819294E1,1.0345539E1,5.712036E2],"tree_param":{"num_deleted":"0","num_feature":"34","num_nodes":"107","size_leaf_vector":"0"}},{"base_weights":[-3.4457493E-1,-3.2265344E-1,-3.9287865E-1,-3.2688916E-1,-3.8921777E-2,-4.066928E-1,-1.591944E-1,-3.539907E-1,-2.808053E-1,1.3298824E-1,-7.127238E-1,-3.7628978E-1,-4.9387732E-1,-4.9891415E-1,6.2326025E-2,-4.1942668E-1,-3.2505122E-1,-5.3738356E-1,-2.6750535E-1,1.1239538E0,-6.262983E-2,-8.6028486E-1,1.8931648E-1,-4.3716675E-1,-3.166862E-1,-3.7801704E-1,-5.677594E-1,-5.8969206E-1,2.522779E-1,1.3092104E0,3.998834E-3,-2.1125609E-1,-4.6250188E-1,-2.7342504E-1,-3.9418522E-1,8.30875E-1,-5.92541E-1,1.2309068E0,-2.701293E-1,1.5407243E0,-7.1896774E-1,-5.1302344E-1,2.7822518E-1,1.4618509E-1,-9.85364E-1,-5.998351E-1,9.21777E-1,-1.7270093E-1,-4.6253613E-1,-5.39058E-1,-2.7020797E-1,-4.0018767E-1,1.1480677E0,-5.807732E-1,1.0467755E0,-4.2512038E-1,-1.0572155E0,-3.6409736E-1,1.5905017E0,2.160134E0,-1.9750029E-1,1.1873177E0,-5.582511E-2,-3.2928458E-1,1.6057995E-1,-1.7925663E-1,-4.9322623E-1,-2.771359E-1,1.9733181E0,5.1486707E-1,-4.0397337E-1,-3.9994526E-1,2.0017145E0,5.158107E-1,-6.551762E-1,-6.5326196E-1,2.6927555E0,-3.1330082E-1,-1.8507935E-1,-6.381245E-1,1.9752061E0,6.169519E-1,-6.403697E-1,9.8570985E-1,-2.1771337E-1,-1.23902485E-1,-1.0564034E0,3.6221856E-1,-3.7806097E-1,-5.26988E-1,-3.3426204E-1,-5.634238E-1,6.5498364E-1,-2.8702274E-1,3.1161156E-1,1.0942551E-1,-4.6242797E-1,-2.3038921E-1,2.085281E0,-5.279271E-2,-6.127099E-1,1.7141719E0,-1.6901548E-1,-6.3550395E-1,1.338485E-1,4.0052E-1,-8.296033E-1,-5.9542054E-1,2.0570836E0,6.8595016E-1,-1.7373295E-1],"categories":[],"categories_nodes":[],"categories_segments":[],"categories_sizes":[],"default_left":[true,true,true,true,true,true,true,true,true,true,true,true,true,true,true,true,true,true,true,true,true,true,true,true,true,true,true,true,true,true,true,true,true,true,true,true,true,true,true,true,false,true,true,false,true,false,false,true,true,true,true,true,true,true,true,true,false,true,false,false,false,true,true,false,false,false,false,false,false,false,false,false,false,false,false,false,false,false,false,false,false,false,false,false,false,false,false,false,false,false,false,false,false,false,false,false,false,false,false,false,false,false,false,false,false,false,false,false,false,false,false],"id":7,"left_children":[1,3,5,7,9,11,13,15,17,19,21,23,25,27,29,31,33,35,37,39,41,43,45,47,49,51,53,55,57,59,61,63,65,67,69,71,73,75,77,79,-1,81,83,-1,85,-1,-1,87,89,91,93,95,97,99,101,103,-1,105,-1,-1,-1,107,109,-1,-1,-1,-1,-1,-1,-1,-1,-1,-1,-1,-1,-1,-1,-1,-1,-1,-1,-1,-1,-1,-1,-1,-1,-1,-1,-1,-1,-1,-1,-1,-1,-1,-1,-1,-1,-1,-1,-1,-1,-1,-1,-1,-1,-1,-1,-1,-1],"loss_changes":[8.028442E0,6.3605347E0,7.6813354E0,6.4262695E0,9.261615E0,5.817871E0,1.0233704E1,6.0867615E0,6.4754333E0,1.2456345E1,2.3250217E0,5.970276E0,4.7709045E0,3.8053284E0,6.0276513E0,8.90744E0,8.040466E0,7.631735E0,7.590912E0,9.23879E0,8.480039E0,1.9241753E0,2.3467014E0,5.4905396E0,8.683914E0,8.233761E0,8.038483E0,3.2545166E0,5.9254904E0,5.1753783E0,5.747124E0,7.6899896E0,7.145462E0,1.1470894E1,8.872223E0,6.683156E0,6.6912804E0,1.1143515E1,6.7115784E0,9.73497E0,0E0,3.8121524E0,1.1288551E1,0E0,6.4672756E-1,0E0,0E0,8.295332E0,6.082184E0,4.636627E0,7.0219345E0,7.2579155E0,5.065174E0,5.8939743E0,2.8737345E0,4.468994E0,0E0,2.2014325E0,0E0,0E0,0E0,7.2824326E0,6.8835545E0,0E0,0E0,0E0,0E0,0E0,0E0,0E0,0E0,0E0,0E0,0E0,0E0,0E0,0E0,0E0,0E0,0E0,0E0,0E0,0E0,0E0,0E0,0E0,0E0,0E0,0E0,0E0,0E0,0E0,0E0,0E0,0E0,0E0,0E0,0E0,0E0,0E0,0E0,0E0,0E0,0E0,0E0,0E0,0E0,0E0,0E0,0E0,0E0],"parents":[2147483647,0,0,1,1,2,2,3,3,4,4,5,5,6,6,7,7,8,8,9,9,10,10,11,11,12,12,13,13,14,14,15,15,16,16,17,17,18,18,19,19,20,20,21,21,22,22,23,23,24,24,25,25,26,26,27,27,28,28,29,29,30,30,31,31,32,32,33,33,34,34,35,35,36,36,37,37,38,38,39,39,41,41,42,42,44,44,47,47,48,48,49,49,50,50,51,51,52,52,53,53,54,54,55,55,57,57,61,61,62,62],"right_children":[2,4,6,8,10,12,14,16,18,20,22,24,26,28,30,32,34,36,38,40,42,44,46,48,50,52,54,56,58,60,62,64,66,68,70,72,74,76,78,80,-1,82,84,-1,86,-1,-1,88,90,92,94,96,98,100,102,104,-1,106,-1,-1,-1,108,110,-1,-1,-1,-1,-1,-1,-1,-1,-1,-1,-1,-1,-1,-1,-1,-1,-1,-1,-1,-1,-1,-1,-1,-1,-1,-1,-1,-1,-1,-1,-1,-1,-1,-1,-1,-1,-1,-1,-1,-1,-1,-1,-1,-1,-1,-1,-1,-1],"split_conditions":[9.902805E-1,9.779272E-1,4.180795E5,4.15E1,3.1798804E3,2.9736517E1,1.41175E4,2.0619588E0,2.381E3,7.7835E3,1.72109E1,5E-1,1.65E1,1.31E2,2.066E3,9.5E0,5.217333E-2,3.5625E3,2.4165E3,3.25E1,7.695116E2,8.5E0,2.65E1,7.026711E3,3.0649414E1,1.535302E3,3.4326156E4,2.7148813E3,4.75E1,2.1622E4,4.221335E5,9.799579E4,7.767743E3,5.2121677E-2,5.5E0,4.55E1,2.6070875E-1,2.3127882E0,8.2854234E4,9.449665E-3,-2.1569033E-1,7.0654716E0,4.438E3,4.3855526E-2,7.050796E3,-1.7995054E-1,2.7653313E-1,5.312097E4,2.15E1,1.3558555E3,3.32525E4,7.3835E3,5.7349205E1,5.63E2,3.458687E4,8.4965E3,-3.1716466E-1,1.04025E4,4.7715053E-1,6.4804024E-1,-5.925009E-2,4.92883E1,3.761639E6,-9.878538E-2,4.8173986E-2,-5.377699E-2,-1.4796788E-1,-8.3140776E-2,5.919955E-1,1.5446013E-1,-1.21192016E-1,-1.1998358E-1,6.0051435E-1,1.5474322E-1,-1.9655287E-1,-1.959786E-1,8.078267E-1,-9.399025E-2,-5.552381E-2,-1.9143736E-1,5.9256184E-1,1.8508556E-1,-1.9211093E-1,2.9571298E-1,-6.531402E-2,-3.7170745E-2,-3.1692103E-1,1.0866557E-1,-1.13418296E-1,-1.5809642E-1,-1.00278616E-1,-1.6902715E-1,1.964951E-1,-8.610682E-2,9.348347E-2,3.2827653E-2,-1.387284E-1,-6.9116764E-2,6.255843E-1,-1.5837813E-2,-1.8381298E-1,5.142516E-1,-5.0704647E-2,-1.906512E-1,4.0154554E-2,1.20156005E-1,-2.48881E-1,-1.7862616E-1,6.171251E-1,2.0578505E-1,-5.211989E-2],"split_indices":[26,26,32,31,23,14,1,25,33,1,6,9,21,29,33,17,24,1,33,5,23,21,5,3,20,25,3,23,31,1,32,10,3,24,17,13,25,25,10,24,0,6,19,0,3,0,0,10,21,25,2,2,20,19,3,19,0,33,0,0,0,20,0,0,0,0,0,0,0,0,0,0,0,0,0,0,0,0,0,0,0,0,0,0,0,0,0,0,0,0,0,0,0,0,0,0,0,0,0,0,0,0,0,0,0,0,0,0,0,0,0],"split_type":[0,0,0,0,0,0,0,0,0,0,0,0,0,0,0,0,0,0,0,0,0,0,0,0,0,0,0,0,0,0,0,0,0,0,0,0,0,0,0,0,0,0,0,0,0,0,0,0,0,0,0,0,0,0,0,0,0,0,0,0,0,0,0,0,0,0,0,0,0,0,0,0,0,0,0,0,0,0,0,0,0,0,0,0,0,0,0,0,0,0,0,0,0,0,0,0,0,0,0,0,0,0,0,0,0,0,0,0,0,0,0],"sum_hessian":[7.7006255E3,5.3020815E3,2.398544E3,5.223944E3,7.8138115E1,2.2639697E3,1.3457408E2,3.2852393E3,1.9387045E3,6.2894264E1,1.5243855E1,1.6825474E3,5.814225E2,5.2621876E1,8.19522E1,1.0032547E3,2.2819846E3,9.359978E1,1.8451046E3,9.586276E0,5.3307987E1,1.3140538E1,2.1033177E0,8.292481E2,8.532992E2,2.2877654E2,3.5264597E2,4.7140205E1,5.481671E0,2.7038977E0,7.924831E1,1.7301671E2,8.30238E2,1.3092504E3,9.727342E2,3.082026E0,9.051775E1,2.40711E0,1.8426975E3,7.951947E0,1.6343288E0,2.2746485E1,3.05615E1,1.4338758E0,1.1706662E1,1.0996381E0,1.0036796E0,7.326774E1,7.559804E2,1.4568439E2,7.076148E2,2.2622772E2,2.5488198E0,3.5046136E2,2.1845782E0,3.6279026E1,1.0861179E1,4.2514234E0,1.2302471E0,1.4508476E0,1.2530501E0,2.9067073E0,7.63416E1,1.3141673E2,4.1599964E1,8.1914E1,7.48324E2,1.3079667E3,1.2836691E0,9.812564E0,9.6292163E2,1.8235106E0,1.2585154E0,4.4547257E0,8.606303E1,1.2933038E0,1.1138062E0,1.2204904E3,6.222072E2,1.2441343E0,6.707813E0,1.9144464E0,2.0832039E1,1.2187612E1,1.837389E1,1.1008846E0,1.0605778E1,2.0113224E1,5.315452E1,5.010948E2,2.548856E2,1.4328857E2,2.3958251E0,6.882314E2,1.9383434E1,2.454001E1,2.0168771E2,1.3368102E0,1.2120095E0,2.0141016E1,3.3032037E2,1.1457222E0,1.0388561E0,2.6258852E1,1.0020173E1,1.6616617E0,2.5897617E0,1.0565488E0,1.8501585E0,9.809696E0,6.65319E1],"tree_param":{"num_deleted":"0","num_feature":"34","num_nodes":"111","size_leaf_vector":"0"}},{"base_weights":[-2.6567405E-1,-3.1384143E-1,-2.4477978E-1,-3.1923583E-1,2.4875534E-1,-3.2969445E-1,-2.293469E-1,-2.6113495E-1,-3.6384663E-1,7.0243484E-1,-6.0255665E-1,2.9774407E-1,-3.6200354E-1,-1.3568538E-1,-2.4672729E-1,-2.2653536E-1,-4.4256172E-1,-2.292593E-1,-4.0619802E-1,3.1658733E-1,2.225103E0,9.0870154E-1,-9.6247077E-1,9.3888456E-1,-8.949686E-2,7.7501185E-2,-3.7824792E-1,-1.4670254E-1,1.4368634E0,-2.5969356E-1,-1.0025266E-1,-2.5074086E-1,1.9794841E-1,-4.7294787E-1,6.156725E-1,-2.5574204E-1,7.168565E-1,9.501505E-2,-4.17076E-1,-8.5363454E-1,8.0152434E-1,4.4236973E-1,2.4075038E0,6.660761E-1,-5.279433E-1,-1.5748848E-1,1.614938E0,-4.3645778E-1,-2.609577E-1,-2.1625361E-1,2.6314499E-2,2.1966681E0,-5.900375E-1,-3.7881717E-1,-2.4191049E-1,-1.4657985E-1,6.937701E-1,-2.8358507E-1,4.7894154E-2,1.9190998E0,6.707346E-2,-6.0802543E-1,-2.4010181E-1,-7.4912757E-1,1.7943892E0,-4.3484506E-1,-9.497835E-2,3.972992E-2,2.4882672E0,-5.19701E-1,8.063429E-1,-1.9836685E-1,-4.429111E-1,2.08243E0,2.1386439E-1,-4.3120486E-1,1.0823599E0,3.9885542E-1,3.1246548E0,5.159724E-2,2.08992E0,2.131327E-1,-7.491217E-1,1.776971E0,-3.2348493E-1,2.3723357E0,-1.0843744E-1,-4.4762424E-1,1.1331056E0,1.6297561E0,-2.807377E-1,-2.5536394E-1,2.288696E-1,9.952424E-1,-1.1138307E-2,-1.6872579E-1,3.4583087E0,-4.0232292E-1,4.656886E-1,-2.7111694E-1,-1.626409E-1,-6.8730325E-2,-6.369952E-1,1.8151711E0,6.854404E-2],"categories":[],"categories_nodes":[],"categories_segments":[],"categories_sizes":[],"default_left":[true,true,true,true,true,true,true,true,true,true,true,true,true,true,true,true,true,true,true,true,false,false,false,true,true,true,true,true,true,true,true,true,true,true,true,true,true,true,true,false,true,true,true,true,true,true,true,true,true,true,true,true,false,true,true,true,true,false,false,false,false,false,false,false,false,false,false,false,false,false,false,false,false,false,false,false,false,false,false,false,false,false,false,false,false,false,false,false,false,false,false,false,false,false,false,false,false,false,false,false,false,false,false,false,false],"id":8,"left_children":[1,3,5,7,9,11,13,15,17,19,21,23,25,27,29,31,33,35,37,39,-1,-1,-1,41,43,45,47,49,51,53,55,57,59,61,63,65,67,69,71,-1,73,75,77,79,81,83,85,87,89,91,93,95,-1,97,99,101,103,-1,-1,-1,-1,-1,-1,-1,-1,-1,-1,-1,-1,-1,-1,-1,-1,-1,-1,-1,-1,-1,-1,-1,-1,-1,-1,-1,-1,-1,-1,-1,-1,-1,-1,-1,-1,-1,-1,-1,-1,-1,-1,-1,-1,-1,-1,-1,-1],"loss_changes":[7.1009827E0,6.6171722E0,6.4489746E0,5.436661E0,8.542174E0,1.5583916E1,6.830246E0,5.740677E0,6.773651E0,7.6236296E0,5.142395E0,9.502393E0,5.216072E0,1.1682945E1,6.7261047E0,8.100018E0,5.0496235E0,7.4657583E0,5.028656E0,7.763632E0,0E0,0E0,0E0,9.414658E0,8.488992E0,9.909369E0,4.6705475E0,7.9294405E0,8.533572E0,6.825836E0,1.0796885E1,7.2882767E0,9.518219E0,4.39624E0,8.687975E0,8.120787E0,9.709188E0,9.274649E0,4.973755E0,0E0,6.582063E0,7.1564198E0,3.6601524E0,8.1706E0,2.7988672E0,8.311214E0,4.998021E0,8.689423E0,9.243032E0,8.236788E0,6.894913E0,1.1416121E1,0E0,8.57209E0,6.540436E0,1.0476215E1,1.12359915E1,0E0,0E0,0E0,0E0,0E0,0E0,0E0,0E0,0E0,0E0,0E0,0E0,0E0,0E0,0E0,0E0,0E0,0E0,0E0,0E0,0E0,0E0,0E0,0E0,0E0,0E0,0E0,0E0,0E0,0E0,0E0,0E0,0E0,0E0,0E0,0E0,0E0,0E0,0E0,0E0,0E0,0E0,0E0,0E0,0E0,0E0,0E0,0E0],"parents":[2147483647,0,0,1,1,2,2,3,3,4,4,5,5,6,6,7,7,8,8,9,9,10,10,11,11,12,12,13,13,14,14,15,15,16,16,17,17,18,18,19,19,23,23,24,24,25,25,26,26,27,27,28,28,29,29,30,30,31,31,32,32,33,33,34,34,35,35,36,36,37,37,38,38,40,40,41,41,42,42,43,43,44,44,45,45,46,46,47,47,48,48,49,49,50,50,51,51,53,53,54,54,55,55,56,56],"right_children":[2,4,6,8,10,12,14,16,18,20,22,24,26,28,30,32,34,36,38,40,-1,-1,-1,42,44,46,48,50,52,54,56,58,60,62,64,66,68,70,72,-1,74,76,78,80,82,84,86,88,90,92,94,96,-1,98,100,102,104,-1,-1,-1,-1,-1,-1,-1,-1,-1,-1,-1,-1,-1,-1,-1,-1,-1,-1,-1,-1,-1,-1,-1,-1,-1,-1,-1,-1,-1,-1,-1,-1,-1,-1,-1,-1,-1,-1,-1,-1,-1,-1,-1,-1,-1,-1,-1,-1],"split_conditions":[2.75E1,3.5E0,5.4375E3,5E-1,2.6638262E1,2.6822954E-1,8.9905E3,1.5748144E1,1.0055E4,1.295E2,3.7469E4,1.15E1,3.0077281E4,8.9675E3,1.4560858E5,1.4963052E1,2.95E1,9.201559E3,6.5E0,5.5686475E2,6.675309E-1,2.726105E-1,-2.8874123E-1,1.205E2,3.95E1,1.006313E-1,1.923335E5,4.9724464E0,2.8422176E1,1.3135E3,3.45E1,8.275002E1,5.7085E3,2.2903E4,1.4614292E3,1.75E1,3.25655E1,2.5324636E7,1.2375768E1,-2.5609037E-1,5E-1,5.2378998E1,9.5E0,5E-1,1.7931E1,5E-1,2.5908477E4,3.1453938E1,1.931575E5,1.0995573E-1,9.46114E0,4.05E1,-1.7701127E-1,8.997115E3,2.5E0,7.989473E1,9.631E3,-8.507553E-2,1.4368246E-2,5.7572997E-1,2.0122038E-2,-1.8240763E-1,-7.2030544E-2,-2.2473828E-1,5.383168E-1,-1.3045353E-1,-2.8493505E-2,1.1918976E-2,7.4648017E-1,-1.5591031E-1,2.4190287E-1,-5.9510056E-2,-1.3287333E-1,6.24729E-1,6.415932E-2,-1.2936147E-1,3.2470798E-1,1.1965663E-1,9.3739647E-1,1.5479173E-2,6.26976E-1,6.393981E-2,-2.2473653E-1,5.330913E-1,-9.704548E-2,7.1170074E-1,-3.2531235E-2,-1.3428728E-1,3.399317E-1,4.8892686E-1,-8.422131E-2,-7.660919E-2,6.8660885E-2,2.9857275E-1,-3.3414923E-3,-5.061774E-2,1.0374926E0,-1.2069688E-1,1.3970658E-1,-8.133508E-2,-4.8792273E-2,-2.0619098E-2,-1.9109857E-1,5.445514E-1,2.0563211E-2],"split_indices":[31,15,33,22,14,25,33,6,1,29,32,17,10,33,10,6,8,23,17,23,0,0,0,29,31,24,32,25,14,19,21,20,2,33,23,21,14,0,14,0,11,20,17,15,14,5,10,26,32,24,14,31,0,23,7,20,2,0,0,0,0,0,0,0,0,0,0,0,0,0,0,0,0,0,0,0,0,0,0,0,0,0,0,0,0,0,0,0,0,0,0,0,0,0,0,0,0,0,0,0,0,0,0,0,0],"split_type":[0,0,0,0,0,0,0,0,0,0,0,0,0,0,0,0,0,0,0,0,0,0,0,0,0,0,0,0,0,0,0,0,0,0,0,0,0,0,0,0,0,0,0,0,0,0,0,0,0,0,0,0,0,0,0,0,0,0,0,0,0,0,0,0,0,0,0,0,0,0,0,0,0,0,0,0,0,0,0,0,0,0,0,0,0,0,0,0,0,0,0,0,0,0,0,0,0,0,0,0,0,0,0,0,0],"sum_hessian":[7.1310107E3,2.1532114E3,4.9777993E3,2.13319E3,2.0021332E1,7.624252E2,4.215374E3,9.29486E2,1.203704E3,1.317501E1,6.846321E0,3.6935085E1,7.254901E2,6.6117267E2,3.5542014E3,7.825046E2,1.4698146E2,2.8964914E2,9.140549E2,1.1475108E1,1.6999022E0,1.023583E0,5.822738E0,1.3371626E1,2.356346E1,2.5724392E1,6.997657E2,6.5747314E2,3.699497E0,3.2644514E3,2.8974994E2,7.406779E2,4.1826633E1,1.4341647E2,3.564984E0,2.8247214E2,7.176989E0,1.9252249E1,8.948026E2,3.1392798E0,8.335828E0,1.096557E1,2.4060557E0,8.461911E0,1.5101548E1,2.3092398E1,2.6319952E0,4.6584882E2,2.3391689E2,4.6877893E2,1.8869424E2,2.6298962E0,1.0696008E0,4.21389E2,2.8430625E3,2.7454694E2,1.5203021E1,6.6733417E2,7.3343765E1,1.9901628E0,3.983647E1,8.9743576E1,5.3672894E1,1.820981E0,1.7440032E0,1.3280849E2,1.4966367E2,5.931924E0,1.2450656E0,1.0471967E1,8.780282E0,9.544905E1,7.993535E2,1.8216448E0,6.514183E0,4.7745843E0,6.190986E0,1.0424508E0,1.3636049E0,6.6348085E0,1.8271023E0,3.4795184E0,1.1622029E1,1.0579993E0,2.2034397E1,1.5668325E0,1.0651625E0,4.6326776E2,2.5810552E0,1.5791205E0,2.3233777E2,4.3130872E2,3.7470222E1,6.0706043E0,1.8262363E2,1.2161169E0,1.4137793E0,4.104872E2,1.0901794E1,2.0758184E3,7.672441E2,2.3791928E2,3.662764E1,4.760822E0,1.0442199E1],"tree_param":{"num_deleted":"0","num_feature":"34","num_nodes":"105","size_leaf_vector":"0"}},{"base_weights":[-2.0082283E-1,-2.4699233E-1,-1.7721099E-1,-4.6507138E-1,-2.354092E-1,-1.4418617E-1,-2.2092904E-1,-5.1614237E-1,4.859865E-1,-2.4221066E-1,1.0115167E-1,-1.9443925E-1,-5.224382E-2,-2.4729048E-1,-4.4732127E-2,-6.458828E-1,-2.234531E-1,2.0896E0,-3.076393E-1,-7.643571E-1,-2.3787224E-1,-6.430721E-2,7.521116E-1,-3.7089002E-1,-1.6079316E-1,-1.21140964E-1,1.5270919E-1,-2.5153038E-1,8.9993507E-1,-9.446643E-1,-6.8978284E-4,-7.916784E-2,-7.488077E-1,1.3150837E0,-3.1239608E-1,-8.387173E-1,8.7765706E-1,-8.655273E-1,3.717032E-1,1.3262203E0,-2.3992929E-1,1.3554096E-1,-8.491486E-1,-1.3452084E-1,1.4908009E0,-4.0071374E-1,1.1251504E0,-1.1421599E-1,-3.2509786E-1,-1.731756E-1,2.9574275E-1,9.2672104E-1,5.2937813E-2,6.67911E-1,-2.562546E-1,1.6755793E0,-4.5213467E-1,-6.7520544E-2,-1.0211266E0,7.431544E-2,-5.642143E-1,-4.4850865E-1,1.2721987E0,-2.573759E-1,-8.7343454E-1,2.7516526E-1,-5.6605566E-1,-9.531998E-2,-9.728018E-1,-3.016828E-1,-2.051127E-1,-2.4473686E-2,1.5919663E0,-9.6261615E-1,-6.476773E-2,-5.7481605E-1,7.3103046E-1,2.0665257E0,-1.9677483E-1,-4.1724443E-1,1.87382E0,1.3090126E-1,2.38523E0,-1.2674545E-1,6.9952303E-1,-3.634005E-1,2.4695495E-1,-2.1068181E-1,4.9920845E-1,1.6230728E-1,1.5377595E0,7.923718E-2,1.6021131E0,4.2525816E-1,-1.3050088E-1,1.758372E0,-2.5689477E-1,-4.1259542E-2,-2.7523327E-1,-9.266339E-2,2.282415E0,-5.7876687E-2,-6.1311334E-1,1.5758277E-1,-5.2482456E-1,-8.816462E-1,1.9589503E-1],"categories":[],"categories_nodes":[],"categories_segments":[],"categories_sizes":[],"default_left":[true,true,true,true,true,true,true,true,true,true,true,true,true,true,true,true,true,false,true,true,true,true,true,true,true,true,true,true,true,true,true,true,true,false,true,false,false,true,false,false,true,true,true,true,true,true,true,true,true,true,true,true,true,true,true,true,true,false,false,true,true,false,false,false,false,false,false,false,false,false,false,false,false,false,false,false,false,false,false,false,false,false,false,false,false,false,false,false,false,false,false,false,false,false,false,false,false,false,false,false,false,false,false,false,false,false,false],"id":9,"left_children":[1,3,5,7,9,11,13,15,17,19,21,23,25,27,29,31,33,-1,35,37,39,41,43,45,47,49,51,53,55,57,59,61,63,-1,65,-1,-1,67,-1,-1,69,71,73,75,77,79,81,83,85,87,89,91,93,95,97,99,101,-1,-1,103,105,-1,-1,-1,-1,-1,-1,-1,-1,-1,-1,-1,-1,-1,-1,-1,-1,-1,-1,-1,-1,-1,-1,-1,-1,-1,-1,-1,-1,-1,-1,-1,-1,-1,-1,-1,-1,-1,-1,-1,-1,-1,-1,-1,-1,-1,-1],"loss_changes":[7.269684E0,5.618225E0,6.381729E0,5.7557354E0,4.957817E0,1.169545E1,8.859306E0,3.958538E0,8.649118E0,4.604126E0,4.7223263E0,9.663498E0,1.268075E1,8.305611E0,9.898581E0,4.276457E0,5.160989E0,0E0,3.9338486E0,2.2707767E0,7.0643997E0,5.6866407E0,6.0121393E0,1.2118935E1,1.0502663E1,1.4621393E1,1.740707E1,7.3626785E0,7.400732E0,7.125397E-1,1.0148334E1,6.83111E0,3.6207504E0,0E0,5.167056E0,0E0,0E0,1.2186413E0,0E0,0E0,4.4421997E0,6.8381124E0,5.915475E-1,2.3066773E0,5.1900263E0,1.0450199E1,6.420514E0,1.1044882E1,6.7429924E0,1.5180063E1,1.2164019E1,1.4611898E1,1.3803519E1,9.266432E0,6.712631E0,4.758787E0,1.6105378E-1,0E0,0E0,1.06543255E1,6.977665E0,0E0,0E0,0E0,0E0,0E0,0E0,0E0,0E0,0E0,0E0,0E0,0E0,0E0,0E0,0E0,0E0,0E0,0E0,0E0,0E0,0E0,0E0,0E0,0E0,0E0,0E0,0E0,0E0,0E0,0E0,0E0,0E0,0E0,0E0,0E0,0E0,0E0,0E0,0E0,0E0,0E0,0E0,0E0,0E0,0E0,0E0],"parents":[2147483647,0,0,1,1,2,2,3,3,4,4,5,5,6,6,7,7,8,8,9,9,10,10,11,11,12,12,13,13,14,14,15,15,16,16,18,18,19,19,20,20,21,21,22,22,23,23,24,24,25,25,26,26,27,27,28,28,29,29,30,30,31,31,32,32,34,34,37,37,40,40,41,41,42,42,43,43,44,44,45,45,46,46,47,47,48,48,49,49,50,50,51,51,52,52,53,53,54,54,55,55,56,56,59,59,60,60],"right_children":[2,4,6,8,10,12,14,16,18,20,22,24,26,28,30,32,34,-1,36,38,40,42,44,46,48,50,52,54,56,58,60,62,64,-1,66,-1,-1,68,-1,-1,70,72,74,76,78,80,82,84,86,88,90,92,94,96,98,100,102,-1,-1,104,106,-1,-1,-1,-1,-1,-1,-1,-1,-1,-1,-1,-1,-1,-1,-1,-1,-1,-1,-1,-1,-1,-1,-1,-1,-1,-1,-1,-1,-1,-1,-1,-1,-1,-1,-1,-1,-1,-1,-1,-1,-1,-1,-1,-1,-1,-1],"split_conditions":[5.85E1,9.5E0,4.9687788E-2,9.059091E1,2.0615242E1,1.74145E4,1.3992009E-1,2.9057E4,9.221478E1,6.453855E-4,1.2353145E0,5.79E3,5.242755E0,3.47475E4,1.5707E4,3.4911096E-1,7.9546185E0,6.2688005E-1,2.6356353E3,1.9235E4,7.1283E-4,2.55794E5,1.8777006E3,3.314154E4,3.0938683E1,5E-1,5.559275E0,4.5E0,1.35E1,7.5742725E3,1.2576401E0,1.51135E4,4.338E4,3.9452514E-1,3.7424E4,-2.516152E-1,2.6329714E-1,4.444922E6,1.1151097E-1,3.978661E-1,2.3818479E0,2.31231E5,2.2E1,2.7507E4,2.2788738E1,2.2660217E1,2.85E1,3.049776E1,1.5E0,3.7334625E1,4.5694053E-2,6.500839E4,1.00945E4,5.8915E3,3.839125E4,9.5E0,3.05E1,-2.0256164E-2,-3.06338E-1,4.95E1,2.58625E4,-1.345526E-1,3.8165963E-1,-7.721277E-2,-2.6203036E-1,8.254958E-2,-1.698167E-1,-2.8595995E-2,-2.9184055E-1,-9.050484E-2,-6.1533812E-2,-7.342106E-3,4.775899E-1,-2.8878486E-1,-1.943032E-2,-1.7244482E-1,2.1930915E-1,6.1995775E-1,-5.903245E-2,-1.2517333E-1,5.62146E-1,3.927038E-2,7.15569E-1,-3.8023636E-2,2.0985691E-1,-1.0902015E-1,7.408649E-2,-6.320455E-2,1.4976254E-1,4.8692185E-2,4.6132788E-1,2.3771154E-2,4.8063394E-1,1.2757745E-1,-3.9150268E-2,5.275116E-1,-7.706843E-2,-1.2377863E-2,-8.256999E-2,-2.779902E-2,6.847245E-1,-1.7363006E-2,-1.83934E-1,4.7274835E-2,-1.5744737E-1,-2.6449388E-1,5.876851E-2],"split_indices":[4,31,24,20,6,2,24,33,20,24,26,33,25,1,32,26,14,0,23,19,24,32,23,3,14,16,25,17,17,3,26,19,32,0,33,0,0,0,0,0,25,32,17,1,6,6,5,14,15,14,24,10,33,19,10,8,31,0,0,13,33,0,0,0,0,0,0,0,0,0,0,0,0,0,0,0,0,0,0,0,0,0,0,0,0,0,0,0,0,0,0,0,0,0,0,0,0,0,0,0,0,0,0,0,0,0,0],"split_type":[0,0,0,0,0,0,0,0,0,0,0,0,0,0,0,0,0,0,0,0,0,0,0,0,0,0,0,0,0,0,0,0,0,0,0,0,0,0,0,0,0,0,0,0,0,0,0,0,0,0,0,0,0,0,0,0,0,0,0,0,0,0,0,0,0,0,0,0,0,0,0,0,0,0,0,0,0,0,0,0,0,0,0,0,0,0,0,0,0,0,0,0,0,0,0,0,0,0,0,0,0,0,0,0,0,0,0],"sum_hessian":[6.7076787E3,2.266469E3,4.4412095E3,1.12335976E2,2.1541328E3,2.5324692E3,1.9087405E3,1.07045044E2,5.2909317E0,2.1117378E3,4.2395092E1,1.6367522E3,8.95717E2,1.6599814E3,2.4875908E2,7.3332306E1,3.3712738E1,1.2109953E0,4.0799365E0,1.5957839E1,2.09578E3,3.4521694E1,7.8733997E0,2.605135E2,1.3762388E3,6.7067224E2,2.2504471E2,1.6546469E3,5.3344955E0,1.0652101E1,2.3810698E2,1.1543241E1,6.1789066E1,1.0890275E0,3.262371E1,3.019454E0,1.0604827E0,1.4871602E1,1.0862367E0,1.9071953E0,2.0938728E3,2.817472E1,6.346972E0,3.9500883E0,3.9233117E0,2.561395E2,4.3740144E0,1.0735917E3,3.0264703E2,5.967692E2,7.390302E1,2.4749926E1,2.0029478E2,7.740728E0,1.6469061E3,3.2377944E0,2.0967011E0,1.0050969E0,9.647003E0,2.1090376E2,2.720321E1,9.590246E0,1.9529946E0,1.3119821E1,4.8669243E1,9.811705E0,2.2812006E1,2.048975E0,1.2822627E1,7.5214435E2,1.3417284E3,2.6271517E1,1.9032049E0,5.346346E0,1.0006264E0,2.8408692E0,1.109219E0,2.7578907E0,1.1654209E0,2.5510204E2,1.0374563E0,3.061926E0,1.3120885E0,1.0581433E3,1.5448397E1,2.8399637E2,1.8650646E1,5.6589E2,3.0879208E1,6.7754524E1,6.1484933E0,1.1472066E1,1.3277861E1,6.5675934E1,1.3461885E2,3.1385937E0,4.602134E0,1.3384546E2,1.5130607E3,1.043747E0,2.1940475E0,1.0020584E0,1.0946428E0,1.8581635E2,2.5087418E1,1.907665E1,8.12656E0],"tree_param":{"num_deleted":"0","num_feature":"34","num_nodes":"107","size_leaf_vector":"0"}},{"base_weights":[-1.4990757E-1,1.8227875E-2,-1.5669392E-1,1.8677136E-1,-1.8723863E-1,-2.1481727E-1,-1.3363361E-1,8.798626E-1,5.6221757E-2,-2.412788E-1,6.3453853E-1,-1.9865705E-1,-4.9083126E-1,-1.3731176E-1,3.8605118E-1,1.5864668E0,9.2432894E-2,-1.1557177E-1,4.725045E-1,-4.2657456E-1,-3.5105292E-3,-1.6753982E-1,1.6948813E0,3.5501269E-1,-2.0651697E-1,-5.8136845E-1,7.3148054E-1,-1.8427777E-1,-9.8597914E-2,6.258876E-1,-6.7268366E-1,2.422927E0,-5.9773177E-1,-3.1844416E-1,1.7041975E0,5.9397066E-1,-2.0225734E-1,1.744072E-1,1.3659817E0,-4.8463786E-1,6.932952E-1,-2.362217E-1,5.113464E-1,7.5697595E-1,-6.265339E-1,2.1095026E0,4.0247327E-1,-5.3913906E-2,2.2955697E0,1.9016504E-1,-2.1585485E-1,-2.6272407E-2,-6.890153E-1,1.3623484E0,-4.5469037E-1,2.4690475E-1,-1.92974E-1,-3.472243E-2,-1.5570301E-1,6.863509E-2,1.3544544E0,-9.13295E-1,2.6989833E-1,2.805864E0,-1.01826064E-1,-6.574149E-2,-7.5613505E-1,2.2873935E-1,-9.0718186E-1,1.2037607E0,-4.0116954E-1,1.7013782E-1,-4.0117815E-1,-1.7725447E-1,1.0527563E0,1.8079962E0,-3.1003672E-1,-2.3734999E-1,-7.752606E-1,-6.1060756E-1,1.6769959E0,-4.7742063E-1,2.6675367E-1,1.3588446E0,-2.2376002E-1,-7.4225354E-1,-1.4523631E-1,-3.92731E-1,7.341382E-1,2.5834802E-1,3.0831442E0,1.1171551E0,-2.5365466E-2,-2.4526587E-1,-8.21672E-2,1.465301E0,-3.6777967E-1,6.376637E-1,-7.218673E-1,2.7287946E0,2.3273407E-1,-5.7746593E-2,-6.090788E-1,-5.9324896E-1,5.734354E-1,-5.251212E-1,-1.8303482E-1,-1.0760665E-1,1.1976898E-1,-5.646393E-2,-2.2012879E-1,-2.4290325E-1,2.0943298E0,1.960313E0,-3.1580892E-1],"categories":[],"categories_nodes":[],"categories_segments":[],"categories_sizes":[],"default_left":[true,true,true,true,true,true,true,true,true,true,true,true,true,true,true,true,true,true,true,true,true,true,true,true,true,true,true,true,true,true,true,true,true,true,false,true,true,true,true,true,true,true,true,false,true,false,false,true,true,true,true,true,true,true,true,true,true,true,true,true,true,false,false,false,false,false,false,false,false,false,false,false,false,false,false,false,false,false,false,false,false,false,false,false,false,false,false,false,false,false,false,false,false,false,false,false,false,false,false,false,false,false,false,false,false,false,false,false,false,false,false,false,false,false,false],"id":10,"left_children":[1,3,5,7,9,11,13,15,17,19,21,23,25,27,29,31,33,35,37,39,41,43,45,47,49,51,53,55,57,59,61,63,65,67,-1,69,71,73,75,77,79,81,83,-1,85,-1,-1,87,89,91,93,95,97,99,101,103,105,107,109,111,113,-1,-1,-1,-1,-1,-1,-1,-1,-1,-1,-1,-1,-1,-1,-1,-1,-1,-1,-1,-1,-1,-1,-1,-1,-1,-1,-1,-1,-1,-1,-1,-1,-1,-1,-1,-1,-1,-1,-1,-1,-1,-1,-1,-1,-1,-1,-1,-1,-1,-1,-1,-1,-1,-1],"loss_changes":[7.308365E0,8.668017E0,8.220169E0,1.2387646E1,5.1642423E0,7.6926117E0,8.480354E0,1.1937515E1,8.402828E0,4.6951456E0,6.439764E0,7.26062E0,1.1040085E1,7.9430923E0,8.355387E0,2.224827E1,8.048229E0,5.2520695E0,8.8967705E0,4.2311563E0,5.8357143E0,2.6091297E0,8.6955357E-1,1.8760456E1,6.0754623E0,5.351494E0,5.9007835E0,7.4617386E0,8.757227E0,1.0460491E1,1.6646712E0,8.436108E0,2.8355122E-1,3.3883529E0,0E0,6.1493196E0,5.6313524E0,8.484382E0,6.8086357E0,3.951229E0,5.339143E0,4.1956673E0,9.751348E0,0E0,1.0991192E-1,0E0,0E0,5.728501E0,5.798727E0,7.620199E0,6.2397537E0,8.503347E0,3.7389488E0,6.8627186E0,1.6094351E-1,1.1184301E1,6.304199E0,1.2795373E1,8.0950985E0,1.0468463E1,1.1964987E1,0E0,0E0,0E0,0E0,0E0,0E0,0E0,0E0,0E0,0E0,0E0,0E0,0E0,0E0,0E0,0E0,0E0,0E0,0E0,0E0,0E0,0E0,0E0,0E0,0E0,0E0,0E0,0E0,0E0,0E0,0E0,0E0,0E0,0E0,0E0,0E0,0E0,0E0,0E0,0E0,0E0,0E0,0E0,0E0,0E0,0E0,0E0,0E0,0E0,0E0,0E0,0E0,0E0,0E0],"parents":[2147483647,0,0,1,1,2,2,3,3,4,4,5,5,6,6,7,7,8,8,9,9,10,10,11,11,12,12,13,13,14,14,15,15,16,16,17,17,18,18,19,19,20,20,21,21,22,22,23,23,24,24,25,25,26,26,27,27,28,28,29,29,30,30,31,31,32,32,33,33,35,35,36,36,37,37,38,38,39,39,40,40,41,41,42,42,44,44,47,47,48,48,49,49,50,50,51,51,52,52,53,53,54,54,55,55,56,56,57,57,58,58,59,59,60,60],"right_children":[2,4,6,8,10,12,14,16,18,20,22,24,26,28,30,32,34,36,38,40,42,44,46,48,50,52,54,56,58,60,62,64,66,68,-1,70,72,74,76,78,80,82,84,-1,86,-1,-1,88,90,92,94,96,98,100,102,104,106,108,110,112,114,-1,-1,-1,-1,-1,-1,-1,-1,-1,-1,-1,-1,-1,-1,-1,-1,-1,-1,-1,-1,-1,-1,-1,-1,-1,-1,-1,-1,-1,-1,-1,-1,-1,-1,-1,-1,-1,-1,-1,-1,-1,-1,-1,-1,-1,-1,-1,-1,-1,-1,-1,-1,-1,-1],"split_conditions":[5.5E0,1.6896E4,3.95E1,3.3334646E-1,8.564966E0,1.3981056E0,9.05E1,1.3625119E4,2.95495E4,1.5347E4,9.129E3,2.5425066E4,6.265845E7,1.5E0,7.585538E1,2.2697666E3,3.5E0,1.2150411E1,4.5588904E7,1.761151E5,6.688716E1,4.0694E4,6.3208687E1,2.7039E4,6.5E0,4.2962045E6,1.95985E4,9.8445E3,4.15E1,2.5230404E1,7.7907624E0,2.05E1,1.4778401E-1,8.321E3,5.1125926E-1,2.907846E7,2.4893126E0,1.7210344E4,3.118444E1,1.2009716E1,1.0516115E1,1.6098797E4,5.45E1,2.2709279E-1,1.0602037E0,6.3285077E-1,1.20741986E-1,2.103685E5,1.75E1,5E-1,1.1044106E5,7.5715E3,4.98E3,6.443721E7,4.75E1,9.2905E3,1.72125E4,1.986055E5,1.45E1,5.40955E4,4.6798515E0,-2.7398852E-1,8.09695E-2,8.4175926E-1,-3.054782E-2,-1.9722447E-2,-2.2684053E-1,6.862181E-2,-2.7215457E-1,3.6112824E-1,-1.2035087E-1,5.104135E-2,-1.2035345E-1,-5.3176343E-2,3.158269E-1,5.4239887E-1,-9.301102E-2,-7.1205E-2,-2.325782E-1,-1.8318227E-1,5.030988E-1,-1.4322619E-1,8.0026105E-2,4.0765342E-1,-6.712801E-2,-2.2267607E-1,-4.3570895E-2,-1.1781931E-1,2.2024147E-1,7.750441E-2,9.2494327E-1,3.3514655E-1,-7.6096402E-3,-7.3579766E-2,-2.4650162E-2,4.3959033E-1,-1.10333905E-1,1.9129913E-1,-2.165602E-1,8.186384E-1,6.9820225E-2,-1.7323978E-2,-1.8272366E-1,-1.779747E-1,1.7203063E-1,-1.5753637E-1,-5.4910447E-2,-3.2281995E-2,3.5930693E-2,-1.693918E-2,-6.603864E-2,-7.287098E-2,6.28299E-1,5.8809394E-1,-9.474268E-2],"split_indices":[21,1,29,26,24,26,13,3,33,2,19,10,0,7,20,23,7,14,0,10,20,32,20,1,21,0,33,32,13,14,25,17,26,19,0,0,25,3,14,6,6,3,29,0,26,0,0,32,21,7,10,33,2,0,13,2,32,32,5,33,25,0,0,0,0,0,0,0,0,0,0,0,0,0,0,0,0,0,0,0,0,0,0,0,0,0,0,0,0,0,0,0,0,0,0,0,0,0,0,0,0,0,0,0,0,0,0,0,0,0,0,0,0,0,0],"split_type":[0,0,0,0,0,0,0,0,0,0,0,0,0,0,0,0,0,0,0,0,0,0,0,0,0,0,0,0,0,0,0,0,0,0,0,0,0,0,0,0,0,0,0,0,0,0,0,0,0,0,0,0,0,0,0,0,0,0,0,0,0,0,0,0,0,0,0,0,0,0,0,0,0,0,0,0,0,0,0,0,0,0,0,0,0,0,0,0,0,0,0,0,0,0,0,0,0,0,0,0,0,0,0,0,0,0,0,0,0,0,0,0,0,0,0],"sum_hessian":[6.401594E3,2.4829356E2,6.1533003E3,1.3645279E2,1.11840775E2,1.74549E3,4.4078105E3,2.071843E1,1.1573436E2,1.0560272E2,6.2380514E0,1.6505712E3,9.491881E1,4.3775635E3,3.02471E1,1.0384818E1,1.0333611E1,8.243646E1,3.3297894E1,5.8904015E1,4.6698708E1,4.030923E0,2.2071288E0,2.2485353E1,1.6280858E3,8.886119E1,6.0576196E0,1.9762725E3,2.401291E3,2.499401E1,5.253088E0,7.4300933E0,2.954725E0,8.873875E0,1.4597361E0,8.33777E0,7.4098694E1,2.5863926E1,7.43397E0,5.6539764E1,2.3642511E0,3.2534546E1,1.4164162E1,1.1219206E0,2.9090023E0,1.1923736E0,1.0147552E0,1.9374792E1,3.110563E0,3.6998325E1,1.5910875E3,1.4635459E1,7.422573E1,3.8574822E0,2.2001374E0,3.8528576E1,1.9377439E3,1.1342131E3,1.2670778E3,1.47820215E1,1.021199E1,4.2095857E0,1.0435027E0,6.354886E0,1.0752076E0,1.0025918E0,1.9521332E0,4.9161706E0,3.9577038E0,5.039864E0,3.2979066E0,2.5850065E1,4.8248627E1,1.9039387E1,6.8245387E0,5.8202553E0,1.6137145E0,3.1528872E1,2.5010891E1,1.1797535E0,1.1844976E0,2.2023912E1,1.0510632E1,6.185012E0,7.97915E0,1.9080521E0,1.0009502E0,1.3900163E1,5.474628E0,1.2375133E0,1.8730496E0,6.1903863E0,3.0807938E1,1.303488E3,2.8759943E2,2.1135578E0,1.2521901E1,1.3487376E0,7.287699E1,1.105056E0,2.7524261E0,1.0008681E0,1.1992693E0,1.0554734E1,2.7973839E1,5.479431E1,1.8829496E3,7.708525E2,3.633607E2,4.9951697E2,7.675608E2,1.35744505E1,1.2075709E0,7.366329E0,2.8456614E0],"tree_param":{"num_deleted":"0","num_feature":"34","num_nodes":"115","size_leaf_vector":"0"}},{"base_weights":[-1.1060957E-1,-8.637577E-2,-1.5395692E-1,-9.137658E-2,2.4753779E-1,7.7194735E-2,-1.6678552E-1,-8.574476E-2,-3.7101537E-1,6.472218E-1,-7.1941614E-2,6.516014E-1,-7.541962E-2,-1.7367451E-1,2.6051113E-1,-1.5968756E-1,-6.2562734E-2,-4.5033208E-1,8.137142E-1,4.3026816E-2,1.26084E0,-2.8438345E-1,6.4939E-1,2.3344493E0,2.5253457E-1,-1.2351254E-1,1.7190536E0,-3.0199966E-1,-1.5048271E-1,-4.9303848E-1,6.0678524E-1,8.90722E-1,-1.7277305E-1,8.306957E-1,-6.69531E-2,1.0733703E0,-4.9384242E-1,1.3700563E0,-6.027068E-1,-2.2882621E-1,1.6738424E0,2.0817332E-1,2.29489E0,1.2502458E0,-4.300154E-1,1.9314948E0,-2.1533115E-1,3.2152045E-1,2.9242618E0,-1.5728705E-1,1.1991154E0,-4.4757655E-1,1.9474597E-1,-3.6906856E-1,3.1076577E-1,1.4324139E-1,-1.6208634E-1,1.3437198E-1,-9.519765E-1,-3.836679E-2,1.1789E0,1.3382096E0,-5.190131E-1,-2.4053109E-1,-2.6975878E-2,-8.1301135E-1,1.2774125E0,8.423343E-3,-1.0615802E-1,3.891917E-1,-5.6600785E-1,2.1371942E0,-1.9377509E-1,-5.7187533E-1,1.021542E0,-8.2011414E-1,9.615528E-1,3.11762E0,6.604405E-1,7.5487554E-2,-6.9940007E-1,2.886896E0,-9.941665E-2,6.527135E-1,-8.247413E-1,3.4238946E0,8.687835E-1,1.7493662E0,-4.8078567E-1,-3.2217392E-1,2.48641E0,-5.233739E-1,6.4639574E-1,8.5843855E-1,-4.6283714E-2,2.1948111E-1,-4.2195457E-1,1.7739263E0,1.434339E-1,3.815252E-1,-2.3155726E-1,-2.111665E-1,-6.026081E-2,-4.5305967E-1,1.3898082E0,-8.8719803E-1,4.9246785E-1,1.6866334E-1,1.8879521E0],"categories":[],"categories_nodes":[],"categories_segments":[],"categories_sizes":[],"default_left":[true,true,true,true,true,true,true,true,true,true,true,true,true,true,true,true,true,true,true,true,true,true,true,true,true,true,false,true,true,true,true,true,true,true,true,false,true,true,false,true,false,true,true,false,true,true,true,false,true,true,true,true,true,true,true,true,true,true,false,true,true,false,false,false,false,false,false,false,false,false,false,false,false,false,false,false,false,false,false,false,false,false,false,false,false,false,false,false,false,false,false,false,false,false,false,false,false,false,false,false,false,false,false,false,false,false,false,false,false],"id":11,"left_children":[1,3,5,7,9,11,13,15,17,19,21,23,25,27,29,31,33,35,37,39,41,43,45,47,49,51,-1,53,55,57,59,61,63,65,67,-1,69,71,-1,73,-1,75,77,-1,79,81,83,-1,85,87,89,91,93,95,97,99,101,103,-1,105,107,-1,-1,-1,-1,-1,-1,-1,-1,-1,-1,-1,-1,-1,-1,-1,-1,-1,-1,-1,-1,-1,-1,-1,-1,-1,-1,-1,-1,-1,-1,-1,-1,-1,-1,-1,-1,-1,-1,-1,-1,-1,-1,-1,-1,-1,-1,-1,-1],"loss_changes":[6.478401E0,6.6453247E0,6.580311E0,6.1232452E0,7.5535755E0,1.0317506E1,6.22274E0,6.5593395E0,7.5885906E0,9.665577E0,5.3295193E0,1.599311E1,8.276549E0,6.1028366E0,9.0919285E0,1.2718166E1,1.1504467E1,5.3483934E0,4.9067874E0,6.698546E0,1.3642134E1,6.4893494E0,9.22184E0,4.5351562E0,8.3663845E0,9.569141E0,0E0,1.3069477E1,5.993374E0,3.3416736E0,8.732418E0,7.89219E0,8.92091E0,1.1577513E1,8.588445E0,0E0,4.766718E0,5.241506E0,0E0,6.1988335E0,0E0,6.6202745E0,6.6062775E0,0E0,3.4662404E0,6.6893377E0,3.523564E0,0E0,5.6147003E-1,1.046029E1,1.3501372E1,4.1406937E0,7.571189E0,8.950447E0,7.4923067E0,6.081034E0,8.411102E0,4.7532415E0,0E0,5.857692E0,8.639496E0,0E0,0E0,0E0,0E0,0E0,0E0,0E0,0E0,0E0,0E0,0E0,0E0,0E0,0E0,0E0,0E0,0E0,0E0,0E0,0E0,0E0,0E0,0E0,0E0,0E0,0E0,0E0,0E0,0E0,0E0,0E0,0E0,0E0,0E0,0E0,0E0,0E0,0E0,0E0,0E0,0E0,0E0,0E0,0E0,0E0,0E0,0E0,0E0],"parents":[2147483647,0,0,1,1,2,2,3,3,4,4,5,5,6,6,7,7,8,8,9,9,10,10,11,11,12,12,13,13,14,14,15,15,16,16,17,17,18,18,19,19,20,20,21,21,22,22,23,23,24,24,25,25,27,27,28,28,29,29,30,30,31,31,32,32,33,33,34,34,36,36,37,37,39,39,41,41,42,42,44,44,45,45,46,46,48,48,49,49,50,50,51,51,52,52,53,53,54,54,55,55,56,56,57,57,59,59,60,60],"right_children":[2,4,6,8,10,12,14,16,18,20,22,24,26,28,30,32,34,36,38,40,42,44,46,48,50,52,-1,54,56,58,60,62,64,66,68,-1,70,72,-1,74,-1,76,78,-1,80,82,84,-1,86,88,90,92,94,96,98,100,102,104,-1,106,108,-1,-1,-1,-1,-1,-1,-1,-1,-1,-1,-1,-1,-1,-1,-1,-1,-1,-1,-1,-1,-1,-1,-1,-1,-1,-1,-1,-1,-1,-1,-1,-1,-1,-1,-1,-1,-1,-1,-1,-1,-1,-1,-1,-1,-1,-1,-1,-1],"split_conditions":[9.2982745E-1,2.1237993E1,2.278408E6,3.3503E4,2.6922293E0,1.15E1,2.5E0,8.9525E3,8.9321494E-1,6.35E1,2.45408E5,6.6525E3,2.2643035E6,1.85E1,8.592703E6,2.4385E3,8.9985E3,3.1189434E-3,9.062851E4,7.9568184E3,7.302739E4,6.575E3,9.8145205E3,1.5E0,9.5E0,3.2740207E0,5.1571614E-1,5.8E1,5.5E0,6.497882E4,1.6447E4,6.2007837E0,2.15E1,1.782957E-2,1.117483E4,3.220111E-1,7.4068564E3,9.172474E-1,-1.8081205E-1,1.4263E4,5.0215274E-1,2.224488E1,5.7136077E-1,3.7507376E-1,3.85E1,8.913008E4,1.17365E4,9.645614E-2,1.1527977E0,7.3386803E0,1.05E1,2.2667E4,9.3815E3,7.1575E3,1.9447757E2,1.35E1,1.45E1,5.8913703E4,-2.8559294E-1,1.07925E4,1.1529723E4,4.014629E-1,-1.5570393E-1,-7.215933E-2,-8.092764E-3,-2.4390341E-1,3.8322377E-1,2.5270032E-3,-3.1847406E-2,1.1675751E-1,-1.6980237E-1,6.411583E-1,-5.813253E-2,-1.7156261E-1,3.064626E-1,-2.4603425E-1,2.8846586E-1,9.3528605E-1,1.9813216E-1,2.2646267E-2,-2.0982003E-1,8.660688E-1,-2.9824996E-2,1.9581406E-1,-2.474224E-1,1.0271684E0,2.6063505E-1,5.248099E-1,-1.442357E-1,-9.665218E-2,7.45923E-1,-1.5701218E-1,1.9391873E-1,2.5753158E-1,-1.3885115E-2,6.5844335E-2,-1.2658638E-1,5.321779E-1,4.3030173E-2,1.1445756E-1,-6.946718E-2,-6.3349955E-2,-1.8078243E-2,-1.359179E-1,4.1694248E-1,-2.6615942E-1,1.4774036E-1,5.0599005E-2,5.663856E-1],"split_indices":[26,6,0,2,25,21,15,2,26,29,32,1,0,31,0,1,2,24,10,23,10,2,3,7,21,25,0,13,21,10,33,25,21,24,3,0,3,26,0,19,0,6,26,0,29,10,2,0,26,6,8,19,2,2,23,8,8,10,0,2,3,0,0,0,0,0,0,0,0,0,0,0,0,0,0,0,0,0,0,0,0,0,0,0,0,0,0,0,0,0,0,0,0,0,0,0,0,0,0,0,0,0,0,0,0,0,0,0,0],"split_type":[0,0,0,0,0,0,0,0,0,0,0,0,0,0,0,0,0,0,0,0,0,0,0,0,0,0,0,0,0,0,0,0,0,0,0,0,0,0,0,0,0,0,0,0,0,0,0,0,0,0,0,0,0,0,0,0,0,0,0,0,0,0,0,0,0,0,0,0,0,0,0,0,0,0,0,0,0,0,0,0,0,0,0,0,0,0,0,0,0,0,0,0,0,0,0,0,0,0,0,0,0,0,0,0,0,0,0,0,0],"sum_hessian":[6.178798E3,3.9650735E3,2.213724E3,3.907283E3,5.779055E1,1.1613491E2,2.0975894E3,3.831426E3,7.585685E1,2.5217005E1,3.2573544E1,2.3692394E1,9.244251E1,2.064892E3,3.2697163E1,9.1309015E2,2.918336E3,7.1677956E1,4.178896E0,1.3245266E1,1.197174E1,2.5630709E1,6.9428363E0,3.611803E0,2.0080591E1,9.093653E1,1.5059808E0,3.1422055E2,1.7506716E3,1.01610985E1,2.2536064E1,1.0409629E1,9.0268054E2,1.3352947E1,2.904983E3,1.3328584E0,7.034509E1,3.023901E0,1.1549947E0,1.2089638E1,1.1556275E0,6.527767E0,5.443973E0,1.5640638E0,2.4066645E1,2.299601E0,4.643235E0,1.1686217E0,2.4431813E0,1.459537E1,5.4852204E0,4.4855984E1,4.608055E1,2.8357968E2,3.0640894E1,6.6101036E1,1.6845706E3,4.5914183E0,5.56968E0,1.1030419E1,1.1505646E1,7.939998E0,2.4696312E0,6.1582916E2,2.8685135E2,2.6782565E0,1.067469E1,9.942316E2,1.9107513E3,4.982682E0,6.536241E1,1.7827384E0,1.2411627E0,9.912652E0,2.1769857E0,2.722816E0,3.8049512E0,3.017577E0,2.426396E0,8.61684E0,1.5449805E1,1.2772614E0,1.0223397E0,1.8858995E0,2.7573354E0,1.4298751E0,1.0133061E0,1.4777983E0,1.3117572E1,2.8577447E0,2.627476E0,4.2437244E1,2.4187376E0,1.1594025E1,3.4486526E1,2.3121262E1,2.604584E2,2.1592276E0,2.8481667E1,4.0398895E1,2.5702143E1,1.1359607E3,5.4860986E2,3.5632555E0,1.0281627E0,3.9857225E0,7.0446973E0,5.255555E0,6.25009E0],"tree_param":{"num_deleted":"0","num_feature":"34","num_nodes":"109","size_leaf_vector":"0"}},{"base_weights":[-8.061751E-2,-1.1096139E-1,-4.5957558E-2,-1.0430766E-1,-5.054791E-1,1.8523918E-1,-6.519955E-2,-2.2355813E-1,-8.1360616E-2,7.2425807E-1,-5.4872423E-1,-7.64904E-2,4.432451E-1,-5.9465945E-2,-8.515876E-1,2.3122756E-1,-2.4844576E-1,-8.645385E-2,5.8883935E-1,2.7117914E-1,-6.120825E-1,4.36158E-1,-3.4564954E-1,3.0895346E-1,1.0057683E0,-3.8414847E-2,-2.0280445E-1,-1.0575739E0,8.938736E-1,5.945929E-2,1.6531972E0,-2.5809014E-1,1.0551071E0,-7.655971E-2,-3.939818E-1,1.0456084E0,-3.4163246E-1,-7.69987E-1,1.8155254E0,4.4045544E-1,-6.738018E-1,1.2118624E0,1.5644632E-1,-6.2771904E-1,-2.4455778E-2,6.040244E-1,-3.6965698E-2,6.548227E-1,3.2172139E0,-3.0079735E-2,-5.1529807E-1,-1.3342774E-1,-4.2830402E-1,-3.892088E-1,5.2910477E-1,3.331962E-3,-3.0607694E-1,2.1468172E0,-2.8871784E-1,-3.7152684E-1,-6.6505745E-2,-4.7869846E-1,3.6519638E-1,-3.0134434E-1,1.578354E0,1.1277726E0,-9.410487E-1,-6.1447465E-1,1.3909447E0,-7.643455E-1,2.8350376E-2,-3.5778272E-1,1.9780948E0,-6.5560356E-2,1.1691452E0,-7.391421E-1,2.0738E-1,-1.6821744E-1,1.0510145E0,1.4885199E0,3.4357178E-1,-5.4076463E-1,3.027512E-1,1.1886606E0,-4.049107E-1,3.857074E-1,-3.933302E-2,-6.66995E-1,1.5575132E-1,-8.738675E-1,-1.060402E-1,9.3052876E-1,-5.039077E-1],"categories":[],"categories_nodes":[],"categories_segments":[],"categories_sizes":[],"default_left":[true,true,true,true,true,true,true,true,true,false,true,true,true,true,true,true,true,true,true,true,true,true,true,true,true,true,true,false,false,true,false,true,true,true,true,true,true,false,false,true,true,true,true,true,true,true,true,true,false,true,true,true,true,false,false,false,false,false,false,false,false,false,false,false,false,false,false,false,false,false,false,false,false,false,false,false,false,false,false,false,false,false,false,false,false,false,false,false,false,false,false,false,false],"id":12,"left_children":[1,3,5,7,9,11,13,15,17,-1,19,21,23,25,27,29,31,33,35,37,39,41,43,45,47,49,51,-1,-1,53,-1,55,57,59,61,63,65,-1,-1,67,69,71,73,75,77,79,81,83,-1,85,87,89,91,-1,-1,-1,-1,-1,-1,-1,-1,-1,-1,-1,-1,-1,-1,-1,-1,-1,-1,-1,-1,-1,-1,-1,-1,-1,-1,-1,-1,-1,-1,-1,-1,-1,-1,-1,-1,-1,-1,-1,-1],"loss_changes":[6.3233185E0,8.367458E0,1.2515356E1,8.6172905E0,3.212861E0,1.463369E1,1.1651376E1,5.8149796E0,9.089966E0,0E0,2.8523045E0,1.5077921E1,7.92515E0,7.7700663E0,7.6726494E0,6.4746113E0,6.3416862E0,7.968992E0,8.900034E0,8.47664E0,3.4350662E0,7.987328E0,6.4619446E0,9.153148E0,1.3855989E1,8.923166E0,5.1031504E0,0E0,0E0,5.4838405E0,0E0,6.022894E0,6.1097345E0,7.5323305E0,5.429599E0,1.0326767E1,7.5544624E0,0E0,0E0,4.144164E0,2.9479904E0,1.2541902E1,6.5621305E0,3.691475E0,5.5061398E0,1.0623192E1,7.372871E0,1.1233754E1,0E0,8.522628E0,4.029949E0,5.052005E0,8.394975E0,0E0,0E0,0E0,0E0,0E0,0E0,0E0,0E0,0E0,0E0,0E0,0E0,0E0,0E0,0E0,0E0,0E0,0E0,0E0,0E0,0E0,0E0,0E0,0E0,0E0,0E0,0E0,0E0,0E0,0E0,0E0,0E0,0E0,0E0,0E0,0E0,0E0,0E0,0E0,0E0],"parents":[2147483647,0,0,1,1,2,2,3,3,4,4,5,5,6,6,7,7,8,8,10,10,11,11,12,12,13,13,14,14,15,15,16,16,17,17,18,18,19,19,20,20,21,21,22,22,23,23,24,24,25,25,26,26,29,29,31,31,32,32,33,33,34,34,35,35,36,36,39,39,40,40,41,41,42,42,43,43,44,44,45,45,46,46,47,47,49,49,50,50,51,51,52,52],"right_children":[2,4,6,8,10,12,14,16,18,-1,20,22,24,26,28,30,32,34,36,38,40,42,44,46,48,50,52,-1,-1,54,-1,56,58,60,62,64,66,-1,-1,68,70,72,74,76,78,80,82,84,-1,86,88,90,92,-1,-1,-1,-1,-1,-1,-1,-1,-1,-1,-1,-1,-1,-1,-1,-1,-1,-1,-1,-1,-1,-1,-1,-1,-1,-1,-1,-1,-1,-1,-1,-1,-1,-1,-1,-1,-1,-1,-1,-1],"split_conditions":[5E-1,9.463878E1,5.063E3,5.8865E3,5.5471916E0,7.05E1,2.6178197E5,2.8558078E-1,2.8306494E5,2.1727742E-1,1.61765E4,2.35E1,2.55E1,1.305E2,8.5335724E1,1.375E2,6.911722E7,3.28185E4,2.35E1,4.2E1,2.4075E3,1.3071734E0,3.8735E3,1.25E1,2.0532E4,6.681809E7,2.8149302E3,-3.172722E-1,2.6816207E-1,1.3871938E-1,4.9595916E-1,8.064094E0,2.5930686E0,3.7455E3,5.8E1,3.0325E3,1.9256804E1,-2.309961E-1,5.4465765E-1,5.2001826E-2,3.05375E4,1.7806984E1,2.05E1,2.4800816E4,2.15E1,8.25E1,9.65E1,7.2415E3,9.651642E-1,4.5E0,1.85E1,9.184613E1,5.5E0,-1.16762646E-1,1.5873143E-1,9.995886E-4,-9.1823086E-2,6.440452E-1,-8.6615354E-2,-1.11458056E-1,-1.9951724E-2,-1.4360954E-1,1.0955892E-1,-9.04033E-2,4.735062E-1,3.383318E-1,-2.8231463E-1,-1.843424E-1,4.1728345E-1,-2.2930367E-1,8.505113E-3,-1.0733482E-1,5.934285E-1,-1.9668108E-2,3.507436E-1,-2.2174264E-1,6.2214002E-2,-5.0465234E-2,3.1530437E-1,4.46556E-1,1.0307154E-1,-1.6222939E-1,9.0825364E-2,3.565982E-1,-1.21473216E-1,1.15712225E-1,-1.1799906E-2,-2.000985E-1,4.6725396E-2,-2.6216027E-1,-3.181206E-2,2.7915865E-1,-1.5117231E-1],"split_indices":[9,20,1,33,6,29,10,25,10,0,32,29,21,29,20,29,0,2,21,31,33,25,1,17,19,0,23,0,0,25,0,6,25,1,13,19,14,0,0,24,1,14,17,3,8,29,29,19,0,21,17,23,21,0,0,0,0,0,0,0,0,0,0,0,0,0,0,0,0,0,0,0,0,0,0,0,0,0,0,0,0,0,0,0,0,0,0,0,0,0,0,0,0],"split_type":[0,0,0,0,0,0,0,0,0,0,0,0,0,0,0,0,0,0,0,0,0,0,0,0,0,0,0,0,0,0,0,0,0,0,0,0,0,0,0,0,0,0,0,0,0,0,0,0,0,0,0,0,0,0,0,0,0,0,0,0,0,0,0,0,0,0,0,0,0,0,0,0,0,0,0,0,0,0,0,0,0,0,0,0,0,0,0,0,0,0,0,0,0],"sum_hessian":[6.016225E3,3.206669E3,2.809556E3,3.1547273E3,5.194163E1,2.1520413E2,2.5943518E3,5.076816E2,2.6470457E3,1.229561E0,5.071207E1,1.071804E2,1.08023735E2,2.5766409E3,1.7710821E1,2.5910664E1,4.8177094E2,2.6279456E3,1.910025E1,3.4023983E0,4.7309673E1,3.6686245E1,7.049415E1,8.8455826E1,1.9567905E1,2.247792E3,3.2884906E2,1.6193844E1,1.5169767E0,2.4047623E1,1.8630424E0,4.7902884E2,2.7420983E0,2.5472417E3,8.070377E1,1.272822E1,6.372029E0,2.3317778E0,1.0706207E0,2.2806072E0,4.5029064E1,8.839566E0,2.784668E1,3.7024887E1,3.346926E1,4.7333744E1,4.1122086E1,1.8006474E1,1.5614328E0,2.2102239E3,3.75679E1,2.5269666E2,7.61524E1,1.2386067E1,1.1661554E1,7.443782E1,4.04591E2,1.1832751E0,1.5588232E0,8.2775955E1,2.4644658E3,7.293447E1,7.769299E0,3.7305484E0,8.997672E0,1.5908291E0,4.7812E0,1.2484707E0,1.0321366E0,3.9807274E1,5.2217917E0,3.0744812E0,5.765085E0,2.3606794E1,4.2398853E0,3.2767754E1,4.257133E0,3.0266966E1,3.2022974E0,9.694877E0,3.7638866E1,1.6323132E1,2.4798954E1,1.1893496E1,6.1129775E0,4.723169E1,2.1629922E3,3.0646107E1,6.921796E0,7.910971E0,2.4478569E2,3.417701E0,7.2734695E1],"tree_param":{"num_deleted":"0","num_feature":"34","num_nodes":"93","size_leaf_vector":"0"}},{"base_weights":[-5.8890034E-2,-9.916527E-2,-3.869729E-2,-1.8555477E-1,-7.1269065E-2,-2.8025083E-2,-1.756397E-1,-2.2548574E-1,2.4638058E-1,5.051291E-2,-1.1694928E-1,-3.4568172E-2,4.8345625E-1,-4.295392E-1,-3.9380606E-2,-2.407469E-1,6.1105275E-1,1.93637E0,3.1468824E-2,-7.1258657E-3,4.2989087E-1,5.429385E-1,-1.275625E-1,-6.508314E-2,1.7195798E-2,1.986998E0,3.2491928E-1,1.5024903E0,-4.7123632E-1,2.2883938E-1,-1.9357547E-1,-4.7843773E-2,-3.0286905E-1,2.1082442E0,-4.1520953E-2,2.6483438E0,-1.20812885E-1,-5.0231284E-1,5.25477E-1,-9.5134884E-2,3.0734786E-1,-2.4058634E-1,6.675264E-1,6.8116106E-2,1.5396713E0,-1.1325052E-1,-5.667391E-1,-1.8494716E-1,-2.6005711E-2,3.131155E-2,-3.249025E-1,-7.836797E-2,2.6943467E0,4.976522E-1,-7.7888685E-1,3.3986244E-1,-5.4045546E-1,1.14368156E-1,1.4097251E0,-8.0233437E-1,-1.0284385E-1,-2.0936827E-1,6.389576E-1,-3.4666833E-1,2.7327093E-1,-7.995371E-1,6.615026E-1,7.9598355E-1,3.2077475E0,-7.107463E-1,4.5655447E-1,1.3152391E0,-2.4408424E-2,-2.2738585E-2,-4.8828092E-1,-1.4230771E-1,5.511968E-1,-4.4836167E-1,1.2189591E0,2.0640104E-3,1.0370895E0,-3.4990248E-1,9.3668014E-1,2.233634E0,-5.9102E-1,-1.1764998E-1,1.8659033E0,-8.057322E-1,-2.3346858E-2,-2.1499546E-1,2.9459804E-1,-4.4436403E-2,2.7393353E-1,1.0255759E-1,-5.528207E-2,-4.5568436E-1,6.0744125E-1,8.232142E-1,-1.511236E-1,-8.841269E-2,-9.000685E-1,-2.6785013E-1,1.352006E0,-5.9760976E-1,3.7525535E-1,7.716066E-1,-1.0496515E-1,2.6690812E0,2.9708517E-1,1.6967976E-1,-9.587736E-1,-8.238624E-1,-1.9464068E-2],"categories":[],"categories_nodes":[],"categories_segments":[],"categories_sizes":[],"default_left":[true,true,true,true,true,true,true,true,true,true,true,true,true,true,true,true,true,true,true,true,true,true,true,true,true,true,true,false,true,true,true,true,true,false,true,true,false,true,true,true,true,true,true,true,true,true,true,true,true,true,true,false,false,true,true,true,true,true,true,true,true,false,false,false,false,false,false,false,false,false,false,false,false,false,false,false,false,false,false,false,false,false,false,false,false,false,false,false,false,false,false,false,false,false,false,false,false,false,false,false,false,false,false,false,false,false,false,false,false,false,false,false,false],"id":13,"left_children":[1,3,5,7,9,11,13,15,17,19,21,23,25,27,29,31,33,35,37,39,41,43,45,47,49,51,53,-1,55,57,59,61,63,-1,65,67,-1,69,71,73,75,77,79,81,83,85,87,89,91,93,95,-1,-1,97,99,101,103,105,107,109,111,-1,-1,-1,-1,-1,-1,-1,-1,-1,-1,-1,-1,-1,-1,-1,-1,-1,-1,-1,-1,-1,-1,-1,-1,-1,-1,-1,-1,-1,-1,-1,-1,-1,-1,-1,-1,-1,-1,-1,-1,-1,-1,-1,-1,-1,-1,-1,-1,-1,-1,-1,-1],"loss_changes":[4.796955E0,4.7359123E0,5.743726E0,8.341211E0,8.301774E0,1.223292E1,9.814945E0,5.767765E0,1.4877619E1,8.913393E0,7.6664762E0,5.695625E0,1.0360411E1,8.695526E0,7.738574E0,5.175514E0,8.070412E0,7.0923157E0,1.0154188E1,9.846686E0,8.72606E0,8.111503E0,6.651287E0,1.0619713E1,6.4704576E0,6.359743E0,8.579277E0,0E0,5.6754265E0,9.080696E0,6.472139E0,1.1969E1,8.356712E0,0E0,4.083911E0,1.0513172E0,0E0,4.0296793E0,8.703691E0,7.899132E0,8.60923E0,5.0356245E0,9.824402E0,4.9770617E0,9.534568E0,9.239681E0,4.3277035E0,8.096848E0,9.474901E0,7.937828E0,6.751697E0,0E0,0E0,8.100056E0,4.394822E-1,5.470592E0,4.961315E0,9.222587E0,7.5491467E0,2.4810019E0,6.261847E0,0E0,0E0,0E0,0E0,0E0,0E0,0E0,0E0,0E0,0E0,0E0,0E0,0E0,0E0,0E0,0E0,0E0,0E0,0E0,0E0,0E0,0E0,0E0,0E0,0E0,0E0,0E0,0E0,0E0,0E0,0E0,0E0,0E0,0E0,0E0,0E0,0E0,0E0,0E0,0E0,0E0,0E0,0E0,0E0,0E0,0E0,0E0,0E0,0E0,0E0,0E0,0E0],"parents":[2147483647,0,0,1,1,2,2,3,3,4,4,5,5,6,6,7,7,8,8,9,9,10,10,11,11,12,12,13,13,14,14,15,15,16,16,17,17,18,18,19,19,20,20,21,21,22,22,23,23,24,24,25,25,26,26,28,28,29,29,30,30,31,31,32,32,34,34,35,35,37,37,38,38,39,39,40,40,41,41,42,42,43,43,44,44,45,45,46,46,47,47,48,48,49,49,50,50,53,53,54,54,55,55,56,56,57,57,58,58,59,59,60,60],"right_children":[2,4,6,8,10,12,14,16,18,20,22,24,26,28,30,32,34,36,38,40,42,44,46,48,50,52,54,-1,56,58,60,62,64,-1,66,68,-1,70,72,74,76,78,80,82,84,86,88,90,92,94,96,-1,-1,98,100,102,104,106,108,110,112,-1,-1,-1,-1,-1,-1,-1,-1,-1,-1,-1,-1,-1,-1,-1,-1,-1,-1,-1,-1,-1,-1,-1,-1,-1,-1,-1,-1,-1,-1,-1,-1,-1,-1,-1,-1,-1,-1,-1,-1,-1,-1,-1,-1,-1,-1,-1,-1,-1,-1,-1,-1],"split_conditions":[5.85E1,2.3905E3,3.08835E4,6.1278772E7,1.720766E1,3.04485E4,3.1913E4,2.6394764E1,2.0249818E-1,3.5E0,5.5417995E0,1.749075E5,6.2721977E0,1.5780686E-3,3.28255E4,5.835E2,2.7801674E1,5E-1,1.30685E4,1.65E1,2.45E1,3.0308E4,3.2976E4,1.652585E1,1.4628103E0,3.05655E4,7.17449E0,4.507471E-1,1.1624695E1,6.05E1,3.30505E4,7.575479E1,1.7320683E1,6.324733E-1,4E1,1.5E0,-3.6243867E-2,2.65E1,1.0844242E4,1.5856816E1,2.4358468E0,2.2909145E4,4.7911755E1,2.65E1,1.99705E4,3.2915E4,3.661664E7,3.25E1,1.5E0,6.3095E3,7.3833575E0,-2.3510393E-2,8.08304E-1,2.7563E4,2.523E3,1.670803E3,1.3711017E-1,4.86975E4,1.45E1,2.4368233E1,2.42815E4,-6.281049E-2,1.916873E-1,-1.040005E-1,8.198129E-2,-2.3986115E-1,1.9845079E-1,2.3879507E-1,9.6232426E-1,-2.1322389E-1,1.3696635E-1,3.9457175E-1,-7.3225275E-3,-6.821576E-3,-1.4648429E-1,-4.2692315E-2,1.6535905E-1,-1.345085E-1,3.6568773E-1,6.1920314E-4,3.1112686E-1,-1.04970746E-1,2.8100404E-1,6.700902E-1,-1.77306E-1,-3.5294995E-2,5.59771E-1,-2.4171966E-1,-7.0040575E-3,-6.449864E-2,8.837941E-2,-1.33309215E-2,8.218006E-2,3.0767279E-2,-1.6584622E-2,-1.3670531E-1,1.8223238E-1,2.4696426E-1,-4.533708E-2,-2.6523808E-2,-2.7002057E-1,-8.035504E-2,4.056018E-1,-1.7928293E-1,1.1257661E-1,2.31482E-1,-3.1489547E-2,8.007244E-1,8.912555E-2,5.090393E-2,-2.876321E-1,-2.4715872E-1,-5.8392207E-3],"split_indices":[4,19,1,0,14,1,1,24,26,7,6,32,6,24,1,19,24,9,2,17,31,33,2,14,26,1,25,0,14,13,1,20,6,0,13,7,0,21,3,6,25,3,20,5,1,2,0,21,15,19,25,0,0,33,19,23,24,32,21,20,32,0,0,0,0,0,0,0,0,0,0,0,0,0,0,0,0,0,0,0,0,0,0,0,0,0,0,0,0,0,0,0,0,0,0,0,0,0,0,0,0,0,0,0,0,0,0,0,0,0,0,0,0],"split_type":[0,0,0,0,0,0,0,0,0,0,0,0,0,0,0,0,0,0,0,0,0,0,0,0,0,0,0,0,0,0,0,0,0,0,0,0,0,0,0,0,0,0,0,0,0,0,0,0,0,0,0,0,0,0,0,0,0,0,0,0,0,0,0,0,0,0,0,0,0,0,0,0,0,0,0,0,0,0,0,0,0,0,0,0,0,0,0,0,0,0,0,0,0,0,0,0,0,0,0,0,0,0,0,0,0,0,0,0,0,0,0,0,0],"sum_hessian":[5.9020938E3,1.9696454E3,3.9324482E3,4.7939484E2,1.4902505E3,3.6492585E3,2.8318973E2,4.392643E2,4.0130543E1,4.0648062E2,1.0837699E3,3.604086E3,4.5172615E1,9.814957E1,1.8504016E2,4.3209372E2,7.170572E0,3.623845E0,3.65067E1,3.537211E2,5.2759518E1,1.6360832E1,1.067409E3,2.267269E3,1.3368169E3,3.208674E0,4.1963943E1,1.3333977E0,9.681617E1,6.7368835E1,1.1767132E2,1.05685844E2,3.264079E2,1.4995388E0,5.671033E0,2.4786434E0,1.1452018E0,1.75389E1,1.8967798E1,2.7691953E2,7.6801575E1,1.3802897E1,3.8956623E1,1.1805352E1,4.55548E0,1.0349401E3,3.2468975E1,5.5651416E2,1.7107548E3,1.2847151E3,5.2101795E1,1.0454129E0,2.163261E0,3.6760498E1,5.203445E0,7.305187E0,8.951098E1,6.2415348E1,4.9534917E0,1.4245952E1,1.0342537E2,8.6125656E1,1.9560196E1,3.03717E2,2.2690863E1,2.6627314E0,3.0083017E0,1.1369065E0,1.3417369E0,1.461971E1,2.91919E0,7.214407E0,1.175339E1,2.3474922E2,4.2170307E1,2.7151268E1,4.965031E1,1.2689303E1,1.1135936E0,1.4268783E1,2.468784E1,8.372852E0,3.4325004E0,3.3998425E0,1.1556375E0,1.0335831E3,1.3569989E0,2.221546E1,1.0253516E1,5.242183E2,3.2295845E1,1.6125204E3,9.823442E1,7.0471625E2,5.799989E2,4.6140778E1,5.961018E0,2.4298435E1,1.2462062E1,1.0351143E0,4.1683307E0,5.024021E0,2.2811658E0,8.457932E1,4.9316583E0,1.4987353E1,4.7427994E1,1.6673769E0,3.2861147E0,1.9632056E0,1.2282746E1,9.799998E0,9.3625374E1],"tree_param":{"num_deleted":"0","num_feature":"34","num_nodes":"113","size_leaf_vector":"0"}},{"base_weights":[-4.3153733E-2,-6.0052E-2,4.791207E-3,-2.835708E-3,-7.9599276E-2,4.4820864E-2,-1.3119441E-1,6.1473135E-2,-1.0990503E-1,-4.2067222E-2,-1.4106907E-1,5.283672E-2,-6.291185E-1,-8.450018E-2,-5.9582084E-1,2.6527626E-2,3.6183712E-1,-1.4058773E-1,5.857885E-1,-5.07124E-2,3.4027782E-1,6.531129E-2,-1.7078404E-1,-2.3267066E-1,7.189063E-2,8.362099E-1,-8.12713E-1,-1.051733E-1,7.0994616E-1,7.1479745E-2,-8.0949813E-1,-3.150774E-1,6.285569E-2,-2.4616422E-1,6.574168E-1,-1.5211435E-1,1.3128535E0,2.3621677E-1,2.750269E0,-5.813612E-2,4.6308282E-1,7.7243316E-1,-2.6379967E-1,7.8284204E-1,-3.902754E-3,6.729375E-1,-1.80024E-1,-3.5543427E-1,8.8223886E-1,1.7948184E0,6.79484E-2,2.135696E-1,-9.4713265E-1,4.5465598E-1,-1.3627844E-1,1.9101745E0,-4.940125E-1,-3.7878227E-1,1.2418246E0,-9.169931E-1,1.5066452E-1,2.4764639E-1,-6.320584E-1,6.229593E-1,3.9949816E-2,-3.7796733E-1,1.3858662E0,4.0646386E-1,1.8586977E0,-9.880253E-2,-4.3801215E-1,1.9207107E0,1.6967036E-1,1.3206264E0,-2.1258396E-1,-1.9996168E-1,-3.636396E-2,-1.6910043E-2,1.0019568E0,1.1226369E0,-3.6580154E-1,2.1712936E-1,-9.6531165E-1,1.3230936E-1,1.8732448E0,7.0335215E-1,-8.1367105E-2,-2.1932559E-1,1.5927099E0,-2.0622669E-1,1.24951184E-1,6.7667824E-1,-4.2380208E-1,1.7452326E0,-1.6510147E-1,-8.143929E-3,1.5453981E-1,-8.406661E-2,-1.0250164E0,-1.8463156E-3,1.8186545E0,-1.734979E-1,3.8185984E-1,-1.6615319E-1,2.7471492E0,-8.432303E-1,3.9302057E-1,6.2411785E-1,-8.908239E-1,3.7854436E-1,-1.0037638E0,9.417402E-1,-6.1806554E-1],"categories":[],"categories_nodes":[],"categories_segments":[],"categories_sizes":[],"default_left":[true,true,true,true,true,true,true,true,true,true,true,true,true,true,true,true,true,true,true,true,true,true,true,true,true,false,true,true,true,true,true,true,true,true,true,true,true,true,false,true,true,true,true,true,true,true,true,true,true,false,true,false,true,true,true,true,true,true,false,true,true,false,false,false,false,false,false,false,false,false,false,false,false,false,false,false,false,false,false,false,false,false,false,false,false,false,false,false,false,false,false,false,false,false,false,false,false,false,false,false,false,false,false,false,false,false,false,false,false,false,false,false,false],"id":14,"left_children":[1,3,5,7,9,11,13,15,17,19,21,23,25,27,29,31,33,35,37,39,41,43,45,47,49,-1,51,53,55,57,59,61,63,65,67,69,71,73,-1,75,77,79,81,83,85,87,89,91,93,-1,95,-1,97,99,101,103,105,107,-1,109,111,-1,-1,-1,-1,-1,-1,-1,-1,-1,-1,-1,-1,-1,-1,-1,-1,-1,-1,-1,-1,-1,-1,-1,-1,-1,-1,-1,-1,-1,-1,-1,-1,-1,-1,-1,-1,-1,-1,-1,-1,-1,-1,-1,-1,-1,-1,-1,-1,-1,-1,-1,-1],"loss_changes":[4.7156878E0,4.8128786E0,8.267236E0,7.5593643E0,7.3942585E0,6.37144E0,7.443337E0,7.190131E0,8.875948E0,6.6050124E0,7.465851E0,6.3293056E0,4.410528E0,5.248575E0,4.53187E0,7.6582956E0,1.2994614E1,6.823351E0,1.2663481E1,7.464017E0,1.1741621E1,7.637149E0,8.407225E0,1.028217E1,7.2717443E0,0E0,1.9723854E0,5.423747E0,1.2675478E1,4.965002E0,2.5995817E0,1.0739702E1,7.1236305E0,5.7049336E0,1.3811548E1,5.949011E0,1.9079347E0,8.18569E0,0E0,5.9304276E0,7.2289467E0,1.0782375E1,6.679665E0,9.348333E0,7.792558E0,9.971706E0,8.43364E0,4.966606E0,7.077264E0,0E0,7.164202E0,0E0,6.888161E-1,1.0238822E1,5.706493E0,7.8790207E0,1.8330389E0,4.1125803E0,0E0,2.8067894E0,2.5645275E0,0E0,0E0,0E0,0E0,0E0,0E0,0E0,0E0,0E0,0E0,0E0,0E0,0E0,0E0,0E0,0E0,0E0,0E0,0E0,0E0,0E0,0E0,0E0,0E0,0E0,0E0,0E0,0E0,0E0,0E0,0E0,0E0,0E0,0E0,0E0,0E0,0E0,0E0,0E0,0E0,0E0,0E0,0E0,0E0,0E0,0E0,0E0,0E0,0E0,0E0,0E0,0E0],"parents":[2147483647,0,0,1,1,2,2,3,3,4,4,5,5,6,6,7,7,8,8,9,9,10,10,11,11,12,12,13,13,14,14,15,15,16,16,17,17,18,18,19,19,20,20,21,21,22,22,23,23,24,24,26,26,27,27,28,28,29,29,30,30,31,31,32,32,33,33,34,34,35,35,36,36,37,37,39,39,40,40,41,41,42,42,43,43,44,44,45,45,46,46,47,47,48,48,50,50,52,52,53,53,54,54,55,55,56,56,57,57,59,59,60,60],"right_children":[2,4,6,8,10,12,14,16,18,20,22,24,26,28,30,32,34,36,38,40,42,44,46,48,50,-1,52,54,56,58,60,62,64,66,68,70,72,74,-1,76,78,80,82,84,86,88,90,92,94,-1,96,-1,98,100,102,104,106,108,-1,110,112,-1,-1,-1,-1,-1,-1,-1,-1,-1,-1,-1,-1,-1,-1,-1,-1,-1,-1,-1,-1,-1,-1,-1,-1,-1,-1,-1,-1,-1,-1,-1,-1,-1,-1,-1,-1,-1,-1,-1,-1,-1,-1,-1,-1,-1,-1,-1,-1,-1,-1,-1,-1],"split_conditions":[4.65E1,9.5E0,1.018E4,9.0872246E-1,3.2911676E7,6.253835E5,1.3020613E0,5.998375E7,2.75E1,3.1746094E7,6.3165E3,1.9053232E2,4.83E2,2.5E0,8.689006E3,1.0515E3,1.8807858E1,1.2250918E4,2.55E1,2.172163E1,5.7812714E1,1.727996E-1,7.386055E-4,3.73668E5,1.9316283E2,2.50863E-1,8.875994E-3,5.5485E3,4E1,7.851659E3,3.05255E4,1.1593131E4,2.4915624E-1,6.924938E7,1.285E2,3.5170708E3,5.8E1,8.4785E3,8.250807E-1,1.45E1,6.875E3,1.55E1,5.734148E-2,2.75E1,1.828547E1,